#include "weights.h"

float weights1[] = {
    0.21594666f, 0.01239423f, -0.54715276f, 0.04462079f, 0.23506674f, -0.14965437f, 0.25617695f, -0.01402344f,
    -0.96592736f, -0.32040831f, 0.74678063f, -0.22786099f, 0.52008933f, 0.26885533f, 0.41313758f, -0.09055796f,
    -1.15139949f, -0.28302374f, 0.25074571f, -0.13470672f, -1.74712300f, 0.32136878f, 0.43337259f, -0.09495731f,
    0.48993170f, -0.55776650f, 0.25189272f, 0.18385130f, 0.71959889f, 0.42483303f, -1.36691856f, -0.90932423f,
    -0.81659269f, -0.14137174f, -0.27802518f, 0.10480803f, 0.77446300f, 0.55251688f, -0.21811794f, -0.00158262f,
    -0.29529840f, -0.64272392f, -1.07503593f, -0.22184324f, -0.96118861f, 0.28520620f, -0.37779698f, -0.11757771f,
    0.03250592f, -0.34640595f, 0.37938818f, 0.22529303f, -1.13712835f, -1.06411266f, -0.78954625f, -0.12546314f,
    -0.15162125f, 0.46569553f, -0.89859343f, -0.22451511f, -0.47520083f, -1.86909044f, 0.93713838f, -0.11898492f,
    0.63012898f, 0.30296469f, 0.28079426f, 0.01472137f, -1.29856157f, -0.40930176f, -0.92768645f, -0.44066599f,
    0.71739948f, -0.52792037f, 0.52243662f, 0.23837239f, -0.04544248f, -0.40226904f, -0.36315733f, -0.12698527f,
    -0.52648282f, -0.68096292f, 0.05247810f, 0.21629657f, -0.19010636f, 0.28235480f, -1.37989879f, -0.15415482f,
    0.14060928f, 0.09372429f, 0.57789087f, -0.40945107f, -0.97806507f, 0.27361751f, -0.52020478f, -0.13397029f,
    1.53217220f, -0.36460283f, 0.52623147f, 0.21030034f, -0.93828094f, 0.24367677f, 0.53909624f, -0.26772660f,
    0.45260814f, -0.36659086f, -2.03411007f, -0.26838630f, -0.41051915f, 0.25222427f, 0.33374402f, 0.13181640f,
    -0.99255311f, 0.47365376f, 0.10738155f, -0.33683893f, 0.71950299f, -0.28060099f, -0.35672930f, 0.05577426f,
    -1.19085920f, -0.22652902f, -2.03078914f, 0.07739788f, -0.64353198f, -1.12246823f, -1.06621909f, -0.32881486f,
    1.05646396f, -0.45559946f, 0.49481535f, -0.15138097f, -0.36863679f, -0.15668981f, 0.16139880f, 0.05739952f,
    0.96785718f, 0.64336491f, 0.37749267f, 0.08326511f, 0.38522312f, 0.36724985f, -0.66188550f, 0.10424823f,
    -1.11943126f, -1.21156073f, -1.61269617f, -0.83954948f, -1.04894698f, -0.83265007f, -1.07133400f, -0.46731758f,
    1.44823563f, 0.01513724f, 0.36069033f, 0.03033387f, 0.16732654f, 0.14957204f, -6.83954287f, 0.08463511f,
    -0.43375057f, -0.13097894f, -1.94469559f, -0.02311660f, -1.68083405f, 0.23413765f, -0.20742950f, 0.04643902f,
    -0.51820272f, -0.24997522f, -0.74473512f, -0.82850122f, -0.28494179f, -0.41943333f, 0.20974834f, 0.07506037f,
    -0.52924645f, -0.57754797f, -0.89102250f, 0.16125520f, -0.09044894f, 0.15036476f, -0.63698852f, 0.23436473f,
    0.26649728f, -0.34474093f, -0.14872810f, 0.06244992f, 0.47208467f, -0.67094123f, 0.41424334f, 0.13080698f,
    -0.50316685f, -0.84105504f, -0.37633327f, -0.28793651f, -1.41463673f, -0.37189361f, -0.22979946f, -0.06850345f,
    -0.95474750f, 0.04431910f, 0.01224882f, -0.05137202f, -1.08601856f, -0.78476655f, -0.57374042f, -0.28738075f,
    0.57893372f, -0.37345886f, -0.12640935f, 0.00905650f, -0.97257024f, 0.32497507f, -0.28113294f, 0.08775041f,
    1.09953523f, -0.34940359f, -0.17156222f, 0.10330089f, 0.66938066f, 0.44989270f, 0.39837557f, 0.02136113f,
    -1.63353014f, 0.13946809f, -0.34586218f, 0.16968286f, 0.55757391f, 0.41780299f, 0.35362467f, 0.10534906f,
    0.54254353f, 0.30426696f, -0.34894714f, -3.66978240f, -1.52109945f, 0.23278840f, 1.66128039f, 0.01154214f,
    -0.63576585f, -0.16045895f, -1.07672501f, -0.37012079f, 0.85050929f, 0.24656279f, 0.41472018f, 0.12562774f,
    -0.39403194f, -0.44686353f, 0.78289133f, 0.11545904f, 0.28013709f, 0.77495915f, 0.35169724f, -1.52950287f
};
float biases1[] = {
    0.02052748f, -0.08996875f, 0.63324368f, -0.02036162f, -0.22895168f, 0.85436761f, -0.23861957f, 0.49955165f,
    0.21323870f, 0.08757772f, -0.63175392f, 0.53927255f, 0.08092842f, -0.81973648f, -0.58959562f, 0.53431094f,
    -0.17959695f, -0.98677737f, -0.06690088f, -0.55935860f, 0.13878021f, 0.62339991f, 0.28835091f, -0.11178738f,
    -0.47587481f, -0.31596005f, 0.00843559f, 0.28466180f, 0.35249910f, -0.21794593f, 1.21914601f, -0.49576113f,
    0.50847286f, 0.14399764f, -0.64710385f, -0.38010895f, -1.09619153f, -0.79422992f, -0.05787606f, 0.95101535f,
    -0.00994900f, 0.74858063f, -0.85599571f, 0.29439563f, 0.42077482f, -0.28240350f, 0.06198933f, -0.09800193f,
    -1.02331996f, 0.22875629f, -0.55242491f, -0.89489716f, -0.02751798f, 0.11090188f, -0.49602893f, 0.16984764f,
    0.67563063f, -0.74182433f, -0.09828734f, -0.41278675f, -0.80160385f, -0.22078343f, -0.27728665f, -0.24555822f
};
float weights2[] = {
    0.08241592f, -0.14989631f, 0.13792613f, -0.19032279f, 0.22952707f, 0.27657866f, -0.17995475f, 0.15213852f,
    0.44029722f, -0.06262240f, 0.08630078f, -0.02131292f, -0.12851420f, 0.06769490f, -0.08300006f, 1.03048599f,
    -0.15386714f, 0.15555961f, -0.15029126f, -0.00619900f, -0.16827700f, -0.43593425f, 0.01538147f, -0.07117642f,
    -0.02359520f, 0.32236937f, -0.16526298f, -0.20556511f, 0.07489089f, 0.22554323f, 0.03795964f, 0.11670998f,
    -0.32659194f, -0.26689115f, -0.12143920f, 0.52263272f, 0.40088841f, 0.15408327f, 0.04557965f, -1.07125390f,
    -0.10598522f, 0.16469900f, 0.23372431f, -0.32020164f, 0.30685112f, 0.32984290f, -0.18941121f, -0.22961541f,
    0.27200314f, 0.06269297f, 0.13750149f, 0.15597136f, -0.03523415f, -0.03988526f, 0.10511903f, -0.07625904f,
    0.44966936f, -0.22736089f, 0.49241015f, -0.13137588f, 0.21229911f, -0.17980556f, -0.08891116f, 0.66494131f,
    -0.30145022f, 0.32997283f, 0.50960672f, -0.66096026f, -0.36038601f, 0.28690094f, 0.34401509f, 0.26608393f,
    0.15530750f, -0.90415502f, -0.44244948f, -0.07690362f, 0.10753898f, -0.72591376f, 0.02182866f, 0.26026592f,
    -0.65888149f, -0.41483545f, 0.18274622f, -0.26006624f, 0.42621249f, -0.59407377f, -0.04966656f, -0.19971915f,
    0.30490366f, 0.01558970f, -0.16972251f, -0.25037044f, -0.05081562f, 0.14103448f, 0.79138011f, -0.48090923f,
    0.49060911f, -0.07574217f, -1.57954812f, -0.78906471f, -0.45690444f, -0.53539246f, -0.82217890f, 0.20611593f,
    -0.07325983f, 0.29887107f, -0.11255362f, 0.15899050f, 0.28921068f, -0.51996410f, 0.10966580f, 0.42482916f,
    -0.45441377f, -0.32918409f, -0.01481770f, -0.46317354f, 0.38025963f, -0.72223002f, 0.41729695f, -0.52866632f,
    1.05043209f, -0.75954676f, 0.53138143f, 0.84777462f, -0.17113058f, -0.67577797f, 0.35389835f, 0.03390405f,
    0.07516224f, -0.10633810f, -0.22521409f, 0.02793985f, 0.02929003f, 0.17627516f, 0.06918290f, 0.37671974f,
    0.09612204f, 0.18985040f, -0.06301202f, 0.04071382f, -0.06783414f, 0.03297377f, -0.07166593f, -0.27772951f,
    0.14923209f, -0.17141335f, 0.02870706f, -0.06228809f, -0.03919822f, 0.03526890f, 0.05761965f, -0.07625112f,
    -0.11199725f, -0.01476575f, -0.13175145f, 0.19592741f, 0.01948187f, 0.06274992f, 0.33795491f, 0.18337253f,
    -0.17083164f, 0.08547662f, 0.12575164f, -0.01835348f, -0.06773221f, 0.04197357f, -0.42361128f, -0.44059262f,
    -0.13812958f, 0.16016705f, 0.02754702f, 0.07512722f, 0.27094182f, 0.16775528f, 0.08360625f, -0.16152368f,
    -0.03914443f, 0.02736603f, -0.15597032f, 0.03806551f, 0.02967999f, 0.04924573f, 0.00816972f, -0.03296540f,
    0.55278653f, -0.00874502f, -0.71258259f, -0.27578562f, -0.15531516f, -0.06346481f, -0.17058377f, 0.15751219f,
    -0.04824801f, -0.07389135f, 0.09157225f, 0.09134131f, 0.07767644f, -0.05900060f, -0.12717098f, 0.05439079f,
    0.04553812f, 0.05969748f, -0.03040028f, -0.03495891f, 0.03780024f, 0.13210669f, -0.11407721f, 0.01935019f,
    -0.09091683f, -0.04633941f, -0.14272836f, 0.07118897f, 0.01461519f, 0.12094664f, 0.18094581f, 0.02861651f,
    -0.02969437f, 0.08335527f, -0.11089704f, -0.08934677f, 0.04529764f, -0.11315235f, -0.14247386f, 0.12217075f,
    0.15147837f, 0.08355422f, -0.06106303f, 0.14659290f, 0.09126692f, 0.04768929f, 0.09534340f, -0.59878176f,
    -0.08148538f, -0.04736104f, 0.06203022f, -0.15196577f, 0.11464415f, -0.13182142f, -0.07960127f, -0.07306563f,
    -0.08424176f, -0.05817477f, -0.14867939f, -0.00797940f, -0.06155822f, 0.15087180f, 0.03985235f, 0.01925673f,
    -0.23971371f, -0.09666711f, -0.04583017f, 0.08517083f, -0.01782747f, -0.01291346f, -0.19763885f, 0.12912193f,
    0.08833591f, -0.44792891f, -1.08125424f, -0.36919203f, 0.23766184f, -0.31812859f, -0.35546908f, 0.29035804f,
    0.21605770f, 0.04401324f, 0.27843457f, -0.06311384f, -0.11267737f, 0.25015050f, 0.20217280f, -0.49319014f,
    -0.06116114f, 0.28524238f, -0.29769117f, 0.23149057f, -0.43068796f, -0.06787496f, -0.78304064f, 0.10073714f,
    -0.25888613f, 0.18252698f, 0.09285404f, -0.20559148f, -0.08184478f, 0.13583468f, 0.67259848f, 0.32755268f,
    -0.35224965f, -0.50511885f, -0.17455214f, 0.54530948f, 0.56639445f, 0.29215193f, -0.35501119f, 0.80427098f,
    0.35271123f, -0.03211967f, 0.51441598f, -0.30450574f, -0.12612066f, 0.10577206f, -0.25926703f, -0.36389691f,
    0.30749750f, 0.02392337f, -0.02539703f, 0.31171098f, -0.14885646f, -0.16913541f, 0.11570603f, -0.06832074f,
    0.45374331f, -0.05086484f, 0.06906208f, -0.26816320f, 0.26954299f, -0.18414205f, -0.61996883f, 0.26285025f,
    -0.07395216f, -0.13015236f, -0.09256432f, -0.13877140f, 0.23205717f, -0.18931244f, -0.09081574f, -0.02291724f,
    0.28294387f, -0.09028303f, 0.15835141f, -0.34839681f, -0.06211215f, 0.09560782f, 0.00987325f, 0.10179929f,
    -0.00238066f, 0.31172097f, -0.13999692f, 0.08229031f, -0.08757224f, -0.41889817f, -0.19109213f, 0.03284007f,
    -0.11172088f, 0.13612962f, -0.01889185f, -0.27694184f, -0.11145967f, 0.18164076f, -0.24607626f, 0.03036077f,
    -0.15668619f, -0.29420900f, -0.17919964f, 0.08432896f, 0.32127446f, 0.32960761f, -0.20401701f, 0.04705292f,
    -0.10072062f, -0.22802691f, 0.22392367f, -0.05053164f, -0.11214277f, -0.14181998f, -0.17204176f, -0.13013774f,
    0.08985256f, 0.15161036f, -0.04924513f, 0.11087698f, -0.01326518f, -0.17123929f, 0.16365789f, -0.06694380f,
    -0.06712548f, -0.10132484f, -0.07346572f, 0.13753997f, 0.15984944f, -0.18025595f, -0.03449144f, 0.27515116f,
    -0.12083008f, -0.01530552f, 0.27753088f, -0.25301480f, 0.27166089f, 0.13781372f, -0.19166146f, -0.18427379f,
    0.29229581f, -0.15872668f, 0.03452726f, -0.01151956f, -0.17217474f, 0.13835222f, 0.11913314f, 0.31728682f,
    -0.16188142f, 0.21979398f, -0.17695335f, 0.00379468f, -0.08020822f, -0.40742257f, -0.19284882f, -0.05815674f,
    -0.14388278f, 0.24034408f, -0.38270307f, -0.20262590f, 0.17329456f, 0.10709408f, -0.56779057f, -0.05150861f,
    -0.26948568f, -0.27554408f, -0.27716455f, 0.31572062f, 0.24340118f, 0.12264935f, -0.03785628f, 0.03143862f,
    -0.08917738f, -0.04054055f, 0.39022848f, -0.12744229f, -0.07492016f, -0.01228382f, -0.09409450f, -0.12771255f,
    0.06117748f, -0.06740037f, 0.11404001f, 0.18825699f, 0.00080358f, -0.09065821f, 0.08242962f, -0.10456426f,
    -0.25386176f, -0.39017308f, 1.95772231f, 0.11568365f, 0.03449607f, -0.07965603f, -0.08640197f, 0.29303637f,
    0.16745262f, 0.13561103f, 0.10325594f, 0.19934541f, 0.36191747f, -0.85668987f, 0.21386217f, -0.34308395f,
    -0.39630157f, 0.10819652f, 0.29173234f, -0.59657472f, 0.07982566f, 0.45078090f, 0.17940082f, 0.81364352f,
    0.33330217f, 0.41659087f, 0.37223297f, 0.17628643f, -0.18711674f, -0.26863104f, 0.55768740f, 0.19963832f,
    0.90865803f, 0.45784539f, 0.11985628f, -0.23537976f, 0.00904388f, 0.38362750f, -0.78119594f, 0.21117829f,
    0.57695526f, -0.13857992f, 0.37313408f, 0.63677734f, 0.61846656f, 0.45382559f, 0.89336890f, -0.45897657f,
    0.19376303f, -1.71059012f, 0.12758520f, -0.19333404f, 0.18518563f, 0.17613325f, 0.09553908f, 0.32285789f,
    0.31539378f, 0.23782854f, 0.30877915f, 0.46040252f, 0.27728486f, -0.33778623f, 0.60671818f, 0.24480796f,
    -1.70922685f, 0.42625299f, -1.12782097f, -0.05492512f, 0.43617144f, 0.32339153f, 0.18414530f, -0.08100349f,
    0.08790454f, -0.33292267f, -0.30979049f, -0.13136117f, -0.10321256f, 0.07772657f, -0.19390768f, 1.57035959f,
    0.31639877f, 0.11400372f, -0.03529875f, 0.34130374f, -0.17034087f, -0.18549807f, -0.01400130f, 0.05748193f,
    0.03909545f, -0.15085143f, -0.16515425f, -0.03428242f, 0.12774947f, 0.46637374f, 0.51982284f, 0.07258150f,
    -0.61419004f, -0.15280865f, 0.10117345f, -0.01903149f, 0.27376607f, 0.00974275f, 0.55910629f, -0.05338124f,
    -0.12034073f, -0.09132046f, -0.00893067f, 0.14302038f, -0.40990412f, -0.26024008f, -0.26257685f, -1.78464484f,
    -0.20467722f, 0.34627682f, -0.01738608f, -0.15525603f, 0.38788849f, 0.23539178f, -0.06361831f, -0.09903266f,
    0.00226671f, 0.05937929f, -0.00127573f, -0.18377370f, -0.05982692f, 0.14000118f, -0.09642109f, -0.05291848f,
    0.59765607f, -0.03806705f, -0.58901072f, -1.05752528f, -0.09613094f, 0.02146683f, -0.15654239f, 0.22909012f,
    0.18006320f, -0.04929752f, 0.09275946f, -0.07307968f, 0.16065727f, -0.00822790f, -0.15904957f, -0.04536487f,
    0.20391448f, 0.06045345f, 0.00570786f, -0.20787539f, -0.08310352f, 0.19374990f, 0.01774713f, 0.53912610f,
    -0.12051116f, 0.14350799f, -0.04171437f, 0.00854539f, -0.16167687f, -0.43411162f, -0.08682493f, -0.23085356f,
    -0.07814125f, 0.11834744f, -0.21739480f, -0.19334584f, 0.04505501f, 0.47730660f, -0.27117079f, 0.17465781f,
    -0.21387430f, -0.12164013f, -0.19968981f, 0.40527582f, 0.45886341f, 0.28386956f, -0.09104803f, -0.40004373f,
    0.01850799f, 0.10802396f, 0.34573877f, -0.16844659f, 0.15510626f, 0.05929568f, 0.00190813f, -0.22687137f,
    0.31404909f, 0.01244881f, 0.05940259f, 0.30260032f, -0.06274576f, -0.17701741f, 0.09048487f, -0.15232544f,
    -0.05792885f, -0.26336572f, 0.35049853f, 0.02916192f, 0.13155517f, -0.17123710f, -0.11126816f, 0.49172729f,
    -0.01926849f, -0.05720395f, -0.10522743f, 0.05185699f, 0.15515715f, -0.18069051f, -0.08155947f, -0.19867726f,
    0.15134944f, 0.13230564f, -0.10173450f, -0.01781986f, 0.04176855f, 0.04998095f, -0.16109659f, 0.21217306f,
    -0.15307844f, -0.05353210f, -0.09477737f, 0.07474367f, 0.00188799f, 0.04705627f, -0.20517403f, 0.04141436f,
    -0.31216383f, -0.04134770f, 0.00730987f, -0.03879888f, -0.11328021f, 0.05389888f, -0.15533605f, -0.05444597f,
    0.05094168f, -0.05490391f, -0.12999776f, -0.09245406f, 0.13812470f, 0.06445345f, -0.03753449f, -0.01846048f,
    -0.04223710f, 0.15486877f, 0.17218752f, 0.00945475f, -0.02752603f, 0.08818927f, -0.08345021f, -0.14847390f,
    -0.05869066f, 0.12240680f, -0.04955750f, -0.00598394f, -0.20458171f, 0.07842391f, 0.02507534f, 0.02983378f,
    0.15649442f, -0.00965666f, -0.29540396f, -0.05575136f, -0.12019364f, 0.03223092f, -0.07495553f, 0.06550263f,
    -0.02677722f, -0.14318901f, 0.07082952f, -0.02504114f, 0.07080345f, -0.13094999f, -0.08267138f, 0.02477928f,
    0.12588704f, 0.13287544f, 0.02662716f, -0.08488119f, 0.04833234f, 0.10000911f, -0.21182758f, 0.21016431f,
    0.15691857f, 0.06083618f, 0.02258218f, 0.08317875f, -0.03904194f, -0.11292880f, 0.11915340f, -0.13201106f,
    0.18026055f, -0.00053322f, -0.08488741f, 0.10903747f, -0.13785298f, -0.05706510f, -0.47088498f, 0.05564849f,
    0.06164949f, -0.04424550f, 0.04893582f, 0.06905401f, 0.12538186f, -0.03541391f, 0.18681122f, -0.30008951f,
    -0.26844424f, -0.11821393f, -0.09046859f, 0.03838085f, 0.07550259f, -0.01675275f, -0.09873722f, -0.06568941f,
    -0.11336935f, -0.00208126f, -0.12426902f, -0.03971595f, -0.10657979f, 0.15648778f, -0.13074285f, 0.08801064f,
    -0.14004555f, 0.01791833f, -0.14136763f, 0.16791771f, -0.05905860f, -0.05675066f, -0.07876108f, 0.01779176f,
    -0.05238849f, 0.02505612f, -0.02817256f, 0.25582972f, -0.23002282f, -0.06676231f, 0.04840947f, -0.35038927f,
    -0.11741447f, 0.30783325f, -0.17172801f, -0.35396504f, 0.21723676f, -0.09780194f, -0.12318846f, 0.17765880f,
    0.20149450f, -0.13560379f, 0.16750316f, -0.03441201f, 0.05158117f, -0.12006813f, -0.18160005f, -0.37262082f,
    0.31889984f, -0.23620830f, -0.23400542f, 0.22171788f, -0.17177424f, 0.10300852f, -0.58024156f, -0.02772342f,
    0.30713493f, 0.16479127f, 0.13706377f, 0.07264261f, 0.00283835f, -0.09595127f, 0.29067013f, -0.03817493f,
    -0.29251477f, -0.34338674f, 0.03759337f, 0.01425659f, -0.05841080f, 0.14878985f, 0.03155021f, 0.01852000f,
    -0.21388011f, -0.18918188f, -0.28378072f, -0.05857586f, 0.03335387f, -0.01188784f, 0.08142560f, 0.28738871f,
    -0.38033453f, 0.23223215f, -0.20145005f, -0.00289889f, -0.09357543f, 0.11190483f, -0.01579481f, -0.05647938f,
    0.04132170f, -0.14439182f, 0.03265979f, 0.03953589f, 0.15055643f, -0.12032711f, 0.08847973f, 0.08015256f,
    -0.01586246f, -0.08229514f, 0.00902776f, -0.04394996f, 0.11300072f, 0.13985960f, 0.15560432f, 0.50579870f,
    -0.10511819f, 0.05993599f, 0.05648328f, 0.16478652f, 0.04896552f, -0.17348780f, 0.24181657f, 0.13627394f,
    0.09685530f, 0.00904943f, 0.11984278f, 0.00606471f, 0.10438037f, -0.11728424f, -0.78328055f, 0.10105146f,
    0.21540342f, 0.04778752f, 0.11002766f, -0.16785759f, 0.19047220f, 0.16353719f, 0.17017834f, -0.31433952f,
    -0.03146669f, -0.24204127f, 0.17697361f, -0.01957728f, -0.03358319f, 0.03700221f, -0.03721107f, -0.05386787f,
    0.00645176f, 0.01346797f, 0.13646741f, 0.13954608f, -0.16548996f, -0.03807488f, -0.05676560f, 0.06860994f,
    -0.61037803f, 0.01637508f, 0.17016828f, 0.24351510f, 0.17171380f, -0.08025118f, -0.00952995f, 0.11779296f,
    0.46261600f, 0.00138251f, -2.34415126f, -0.77762806f, 0.30789822f, -2.60934019f, -0.22640258f, 0.74216855f,
    0.22597985f, 0.04156132f, 0.28578335f, -0.64197463f, -0.63436651f, 0.35368767f, 0.58497262f, 0.39771989f,
    -0.42590526f, 0.43519703f, -0.49573600f, 0.36180586f, -0.15116158f, 0.82892752f, -1.10443962f, 0.17858233f,
    -0.36198002f, 0.16570023f, 1.14930367f, -0.78949791f, -0.73140913f, 0.77727276f, 0.31031406f, 0.22211620f,
    -0.32895097f, -0.32674962f, -0.73571610f, 0.54296792f, 0.21975540f, 0.12627816f, 0.20409858f, 2.30970907f,
    1.63226211f, -2.37008286f, 0.37696645f, -0.49997142f, 0.54057050f, 0.14629041f, 0.01695192f, -0.27615982f,
    0.23780371f, 0.11081281f, 0.32221478f, 0.29096219f, 0.52129346f, 0.06329138f, 0.67319465f, -0.60963547f,
    -0.87293082f, -0.40798625f, -0.25817215f, -1.30812740f, 0.20050266f, -0.58981615f, -0.10213120f, -0.09918288f,
    -0.04317260f, 0.06680764f, 0.12802802f, 0.23173760f, -0.16131163f, -0.05807787f, 0.19748734f, -0.20260769f,
    -0.09080878f, 0.12523144f, -0.13498542f, -0.19505265f, 0.10793740f, -0.16641036f, -0.22271916f, 0.13123015f,
    0.16702504f, 0.08193982f, 0.15251133f, -0.20029502f, 0.11567588f, -0.10498947f, -0.08715525f, -0.25455722f,
    0.22891983f, -0.19419925f, -0.06783786f, 0.17625697f, -0.18006968f, 0.03585274f, -0.67070830f, -0.05199542f,
    0.31857452f, 0.03854651f, 0.28533149f, 0.10629199f, -0.01495369f, 0.09618700f, 0.20492916f, -0.07456225f,
    -0.38297546f, -0.35727775f, 0.07324627f, 0.01494752f, -0.03823102f, 0.07454886f, -0.10892917f, 0.08439862f,
    -0.07026666f, -0.02719458f, -0.08491059f, -0.14325042f, -0.03270395f, 0.05890179f, 0.13809311f, 0.06851725f,
    -0.28975165f, 0.00684981f, -0.34859672f, 0.08380004f, -0.19351584f, 0.18537238f, 0.17781585f, -0.05888293f,
    0.06116244f, -0.04979613f, -0.03478597f, -0.06895834f, 0.24460492f, -0.53326863f, 0.09414155f, 0.16283464f,
    0.16186345f, 0.05202566f, 0.07670595f, -0.13046119f, 0.00849614f, 0.11819021f, 0.21001957f, 0.58523947f,
    0.06834286f, 0.12264885f, 0.05899183f, 0.22127198f, 0.05158850f, -0.20926690f, 0.11311174f, 0.27456501f,
    0.39463460f, 0.27055252f, 0.14732164f, 0.02066896f, -0.04841835f, 0.13408040f, -0.55684710f, 0.23464219f,
    0.51378697f, 0.06958129f, -0.04748372f, -0.10486051f, 0.11587410f, 0.18460394f, 0.42429593f, -0.40137956f,
    -0.04908205f, -0.45155674f, 0.07111569f, 0.00228709f, 0.01355574f, 0.13262804f, -0.10410596f, 0.01547795f,
    0.25357920f, 0.09980598f, 0.19670354f, 0.14564601f, 0.05018528f, -0.10190424f, 0.20823212f, -0.05268478f,
    -0.74131662f, 0.09053617f, -0.16875584f, -0.35590973f, 0.17646411f, 0.00658150f, 0.07301900f, -0.19079097f,
    -0.06646013f, -0.41502643f, 0.15725996f, -0.68479365f, -0.40910688f, 1.74087977f, -0.23677829f, -0.20029855f,
    0.76611644f, -0.46531838f, -0.34816071f, 0.61551464f, 0.06412239f, -0.52604419f, -0.14440431f, -0.02672986f,
    -0.62987375f, -0.44318154f, -0.28854948f, -0.42926890f, 0.34877324f, 0.91597211f, -0.53033978f, -0.12835197f,
    -1.50778389f, -0.29744694f, -0.04935236f, 0.09785054f, 0.33865368f, -0.28900024f, 2.69859481f, -0.28617430f,
    -0.94138139f, 0.10349375f, -1.03811347f, -0.08638406f, -0.26564416f, -0.32258993f, -1.65980792f, 1.90688312f,
    0.49771234f, 2.25462627f, -0.17581503f, 0.13582192f, 0.79546553f, 0.06841287f, -0.01982148f, -0.22523142f,
    -0.38017020f, 0.03261847f, -0.24914509f, -0.37395141f, -0.27749228f, 0.59323466f, -0.77223355f, -0.42572883f,
    2.25137806f, -0.42122728f, 0.05720623f, 1.25061679f, -0.44396320f, -0.46993789f, 0.14528677f, -0.12251130f,
    -0.73728341f, 0.11945300f, 0.75604606f, -0.62182015f, 0.49433964f, 1.65306842f, -0.04026281f, 0.84475416f,
    0.41061771f, -0.83986288f, 0.67024380f, -0.15182181f, 0.10608602f, 0.44854581f, 0.60211647f, 1.00380003f,
    -0.62467486f, 0.52016664f, -0.04142372f, 0.42860243f, 0.47470531f, -1.35428739f, -0.48203456f, 0.26195994f,
    -0.91952848f, 0.64342064f, 0.94666630f, 0.01854715f, 0.61607486f, -0.64586365f, -1.43796253f, 0.75849855f,
    -0.84044790f, 0.23120445f, -0.82924646f, -0.87439966f, 0.89113486f, 0.69544774f, -1.83617890f, 4.23285007f,
    0.33908898f, 1.32214403f, 0.63901621f, 0.27173358f, -1.03268921f, -0.33025321f, -0.37690535f, 0.07354047f,
    0.44097340f, 0.32139114f, 0.52794033f, 0.27046129f, -0.74103242f, 0.32662332f, -0.62549382f, -0.47532126f,
    1.59069538f, -0.16573122f, 0.25121731f, 3.57010722f, 0.79903883f, -0.55207598f, 1.24767649f, -0.38419947f,
    -0.00463901f, -0.10295812f, 0.05570039f, 0.02630687f, 0.00535943f, -0.39399838f, 0.07659350f, -0.26474941f,
    -0.02056359f, 0.13081940f, -0.03553170f, -0.07699190f, -0.15006587f, -0.06270618f, -0.20171802f, 0.27239454f,
    0.02327040f, 0.17558941f, 0.03572599f, -0.04899358f, -0.02618478f, -0.16605438f, -0.06676327f, 0.01504481f,
    0.24032086f, 0.01253920f, -0.23679635f, -0.13539730f, -0.04152950f, 0.04328245f, -0.79314131f, 0.06730388f,
    0.26184353f, -0.08690506f, 0.16250403f, 0.16439839f, -0.02996641f, -0.00319371f, 0.33093381f, -0.82662618f,
    -0.22146748f, -0.47410068f, -0.03711833f, -0.14346096f, 0.08108153f, 0.03815688f, 0.01864611f, -0.10347917f,
    0.03045460f, 0.11047742f, -0.06786575f, 0.03895758f, -0.06380909f, -0.02228191f, 0.11224993f, 0.04398407f,
    -0.74299014f, 0.11287899f, -0.27073234f, -0.50485677f, 0.01712036f, 0.08930441f, -0.06619906f, -0.10600258f,
    0.01252741f, -0.01527575f, -0.13634667f, 0.07711145f, 0.03725664f, -0.51042777f, -0.00439839f, -0.16643848f,
    -0.18346959f, 0.00887096f, -0.09768890f, -0.33110046f, -0.00544718f, 0.13610023f, -0.12657563f, 0.44953731f,
    0.10505006f, 0.09457619f, 0.27941838f, 0.01361513f, -0.11558043f, -0.21090628f, -0.03307445f, -0.09605425f,
    0.55263650f, -0.06891086f, -0.09509363f, -0.08214470f, -0.25297230f, 0.10167890f, -0.85921890f, 0.05741286f,
    0.50977975f, -0.13494165f, 0.22359662f, -0.02799694f, 0.22420345f, 0.11430290f, 0.59875876f, -0.69819212f,
    -0.31941864f, -0.79728013f, 0.03818758f, 0.03762453f, -0.09068954f, -0.13665196f, 0.10092859f, 0.23305731f,
    0.05677700f, 0.09447710f, -0.08725122f, 0.04174532f, -0.01550986f, -0.21637593f, 0.29121265f, 0.07771941f,
    -0.87348181f, 0.15159422f, -0.06439314f, -0.63484585f, 0.01104033f, 0.27553758f, -0.01437459f, -0.13160576f,
    -0.06757081f, -0.35476401f, -0.14931777f, -0.24050380f, 0.01100703f, 0.45551130f, -0.10038745f, 0.43396941f,
    0.41654724f, 0.05786186f, 0.01910429f, 0.06241062f, -0.16717061f, 0.03962945f, 0.17436565f, -0.14338195f,
    -0.12712431f, 0.19261838f, -0.16333115f, -0.04831538f, 0.00702153f, -0.07517235f, -0.09235357f, -0.01122161f,
    -0.23022479f, 0.17870435f, -0.29331806f, -0.11552524f, 0.40552297f, -0.06830055f, -0.41523913f, -0.09202111f,
    -0.43519828f, -0.15908512f, -0.20429412f, 0.05934285f, 0.38708544f, 0.13225289f, -0.20319434f, -0.44188794f,
    -0.23801304f, 0.35874519f, 0.36425638f, -0.28266698f, 0.04404815f, 0.08211965f, -0.10962395f, -0.28766894f,
    0.19568861f, -0.08219690f, 0.06023160f, 0.10963067f, -0.18582979f, -0.00820100f, -0.04387345f, -0.14779547f,
    0.06705581f, -0.28856421f, 1.68867540f, -0.51118815f, 0.24468113f, -0.19041596f, -0.04259642f, 0.67408532f,
    0.03292461f, -0.00590848f, 0.17594130f, -0.53535336f, -0.03892162f, 1.23169422f, -0.34518674f, 2.01012707f,
    0.98598945f, -0.53082085f, 0.06512479f, 0.92118490f, -0.45359725f, -0.33054513f, -0.10466875f, 0.58870608f,
    -0.56583744f, -0.31156439f, -0.64396232f, 0.15664405f, 0.07542114f, -0.00667468f, 1.01466930f, 0.25286445f,
    -1.60560679f, 0.69973522f, 0.40827692f, -0.27770272f, 1.13048363f, -0.07974223f, 2.46488404f, 0.27334747f,
    -0.09377865f, -0.28656641f, -1.17398560f, -0.13522787f, -0.65827626f, -0.08441868f, -1.35796046f, -1.03326726f,
    0.97075731f, 1.56692934f, 0.33953083f, -0.22844131f, 1.14195061f, 0.05358931f, -0.02447866f, -0.40878052f,
    -0.22967924f, 0.31021956f, -0.03143528f, -0.35143098f, 0.03864875f, 0.25705203f, -0.44093844f, -0.41780454f,
    1.38580775f, -0.61523551f, 2.60953546f, 0.33066595f, -0.26845202f, -0.82639742f, -0.34009179f, 1.82383692f,
    -0.08788668f, 0.07898788f, -0.01536031f, 0.20786911f, 0.10371503f, -0.87627256f, 0.05842317f, -0.15013143f,
    -0.09203363f, 0.07510210f, 0.04613613f, -0.38337433f, 0.12856902f, 0.14959759f, 0.01013247f, 0.59126437f,
    0.10837997f, 0.09584536f, 0.32300320f, 0.06194780f, -0.13103135f, -0.06611892f, -0.05735671f, -0.15898620f,
    0.78813189f, -0.08703709f, -0.16927646f, -0.05159746f, -0.39415267f, 0.28232828f, -0.97394896f, 0.02300193f,
    0.50977021f, 0.00764645f, 0.34002948f, 0.00074377f, 0.01800152f, 0.19937330f, 0.68675816f, -0.98061848f,
    -0.22475931f, -0.97865760f, 0.03561332f, -0.14772478f, -0.16784859f, -0.04132916f, 0.02296803f, 0.18093506f,
    0.00955636f, 0.04904717f, 0.10384661f, 0.20391521f, 0.21298814f, -0.21681900f, 0.45484897f, 0.23048367f,
    -1.24018228f, 0.01345793f, -0.21409614f, -0.97694355f, 0.12499761f, 0.23449548f, -0.08956881f, -0.37752724f,
    -0.06779344f, 0.03618190f, -0.14289501f, 0.01173231f, 0.24449877f, -0.41358304f, 0.02382760f, -0.39583927f,
    0.00950205f, 0.12182697f, -0.03566935f, 0.00850048f, 0.03592763f, 0.06889267f, 0.07122546f, 0.53727233f,
    -0.06122113f, 0.18048581f, -0.07508440f, -0.03357799f, -0.12087394f, -0.11979226f, -0.09895128f, -0.00622703f,
    0.11016942f, -0.09109392f, -0.06130043f, 0.04058743f, -0.22619055f, 0.06785359f, -0.47086748f, 0.02853148f,
    0.24682574f, -0.12802570f, 0.15140793f, 0.06504990f, 0.14112738f, 0.05836575f, 0.06535719f, -0.22329889f,
    -0.05470134f, -0.39757413f, 0.04806326f, 0.04862356f, -0.01707250f, 0.10335880f, 0.01925186f, -0.05454263f,
    0.05321283f, 0.13906041f, 0.10377892f, -0.02519637f, -0.01509426f, 0.10329647f, 0.02888447f, 0.03699632f,
    -0.66595525f, 0.06397425f, -0.16590846f, -0.50655079f, 0.05459565f, -0.08338586f, 0.04127961f, -0.15451847f,
    0.00488457f, -0.19361046f, -0.74452674f, -0.92019343f, -0.57749385f, 0.50160342f, -0.50094324f, 1.00068259f,
    0.65382957f, -0.40756682f, -0.14338486f, 0.47814563f, -0.19416054f, -0.44188681f, -0.22267389f, -0.44232377f,
    -0.59808135f, -0.52207971f, -0.54836202f, -0.31781983f, 0.12843695f, 0.45954227f, -0.92275816f, -0.23660330f,
    -2.15886283f, -0.70214099f, 0.75941175f, 0.02048383f, -0.53302616f, -0.18584883f, 1.86954403f, -0.07029913f,
    -0.80705512f, 0.03546530f, -1.45474565f, -0.18184209f, -0.35521191f, -0.41775802f, -1.87666631f, 1.75788426f,
    0.17230728f, 1.98964667f, -0.48194689f, 0.08825713f, 0.38171858f, -0.03857067f, -0.17510021f, -0.40541190f,
    -0.33535573f, -0.31494924f, -0.20031045f, -0.53352189f, -0.23165976f, 0.42686433f, -0.95638883f, -0.64065957f,
    2.26617455f, -0.46204588f, 0.10074340f, -1.07500160f, -0.46138030f, -0.85085028f, -0.04507939f, -1.14562368f,
    0.10666493f, 0.10890386f, 0.34474310f, 0.06665459f, -0.85476041f, 0.80003715f, -0.01626980f, 0.17036952f,
    -0.24486506f, 0.01363884f, -0.69607973f, -0.13659987f, 0.24587971f, -0.83397806f, -0.61128241f, -0.58114082f,
    -0.02233136f, -0.93033123f, -0.03357787f, -0.62536985f, 0.26742554f, 0.46197730f, 0.38765204f, -0.49425343f,
    -0.82495713f, -0.59876966f, -0.46511218f, 0.47160646f, -0.17900643f, -0.08206098f, 1.20501828f, -0.45502621f,
    -0.10283013f, 0.29778293f, -0.23958582f, -0.05825770f, -0.74140793f, -0.77616149f, -0.47635335f, 0.84298092f,
    -0.35529041f, 0.81338072f, -0.38528374f, 0.38921672f, 0.23103328f, 0.11016352f, 0.21853492f, 0.13296606f,
    -0.92576081f, -0.76565200f, -0.70431453f, -0.80169511f, 0.03064859f, 0.10505499f, -0.30800474f, 0.20443760f,
    1.30265403f, 0.08118759f, 0.02564244f, 0.81429678f, -0.80648714f, -0.11141918f, 0.25501460f, -0.11667667f,
    0.15839483f, -0.03887533f, -0.10575709f, 0.09715005f, 0.06164103f, -0.26034635f, 0.07716091f, -0.13505730f,
    0.17353240f, 0.14152455f, -0.09676757f, -0.08807791f, 0.03388491f, -0.00992776f, -0.16446319f, 0.44421181f,
    0.14974809f, 0.03541055f, -0.06897243f, -0.00624692f, -0.05082226f, 0.11827710f, -0.05474227f, -0.04817383f,
    0.12739062f, -0.02860364f, -0.17823258f, -0.09453310f, -0.18571801f, -0.02085429f, -0.33381644f, 0.07024725f,
    0.05437749f, 0.07273742f, 0.08619985f, 0.13312869f, 0.06093802f, -0.06162478f, -0.01034259f, -0.14914425f,
    -0.21020654f, -0.22638080f, -0.09364579f, 0.07658859f, 0.05044518f, -0.03665349f, -0.07539011f, 0.05244566f,
    0.07897224f, -0.10973296f, -0.16465609f, 0.05831165f, 0.04675476f, 0.16124484f, 0.08710754f, -0.02503083f,
    -0.29241958f, -0.03922961f, -0.08702580f, -0.30030945f, -0.11733899f, 0.17637999f, -0.06777199f, -0.02195012f,
    0.05408068f, 0.03363407f, -0.07881260f, 0.03358826f, 0.09135469f, -0.54609030f, -0.02966229f, -0.21675527f,
    -0.10052621f, 0.09299604f, 0.22749077f, -0.29178661f, 0.04383842f, 0.29582325f, -0.00074388f, 0.59390444f,
    0.11613486f, 0.22337870f, 0.15437450f, 0.25369138f, -0.06578642f, -0.16805613f, 0.18424456f, -0.04928376f,
    0.40483248f, 0.01535229f, 0.01954870f, -0.09724268f, -0.00255847f, 0.10940186f, -0.91357809f, 0.06240644f,
    0.24662362f, -0.09397434f, 0.29234284f, 0.09578412f, 0.27741328f, 0.17973343f, 0.53244936f, -0.60651535f,
    -0.04069781f, -0.66780943f, 0.17601211f, -0.04014725f, -0.18111521f, 0.11055522f, 0.01161663f, 0.08941252f,
    0.04648434f, 0.14225464f, 0.07410258f, 0.12942414f, 0.10922953f, -0.09791340f, 0.13605392f, 0.11994356f,
    -0.94691789f, 0.03975828f, -0.18318549f, -0.62875402f, 0.25706285f, 0.19545597f, -0.05760228f, -0.20168972f,
    -0.10003297f, 0.16583380f, 0.08616026f, 0.05971747f, -0.22668192f, 0.11152164f, -0.05426740f, 1.30345190f,
    -0.16225044f, -0.11984392f, -0.14018634f, 0.11683308f, -0.11148470f, 0.02401217f, 0.22975838f, -0.23005815f,
    -0.01280635f, -0.12204114f, -0.14485687f, -0.13651021f, -0.21398236f, 0.31328160f, 0.65181816f, -0.11088210f,
    -0.33693182f, -0.04928807f, 0.25300673f, 0.04970175f, 0.14201854f, -0.06457142f, 0.01243088f, 0.07784829f,
    -0.02932527f, -0.03785972f, 0.03886233f, -0.17058913f, -0.07802386f, 0.06994864f, -0.12021355f, 0.18668777f,
    0.18221731f, -0.18294877f, 0.00874443f, -0.03439913f, -0.35667425f, -0.19018531f, -0.18772508f, -0.06819805f,
    -0.06086762f, -0.19093882f, -0.15885407f, -0.04486488f, -0.21267435f, -0.22185528f, -0.22568059f, 0.09694821f,
    0.02282223f, -0.14704068f, 1.05839384f, 0.98046213f, -0.13440490f, -0.00091362f, 0.15414463f, -0.10027900f,
    0.14621264f, -0.02884750f, -0.25954688f, -0.01546811f, 0.07504031f, -0.76422095f, -0.09384000f, -0.24335332f,
    -0.09429560f, 0.19029433f, 0.02929940f, -0.18064661f, -0.14563514f, -0.01313881f, -0.06980099f, 0.51087439f,
    0.00540482f, 0.16267037f, 0.19369730f, -0.02049711f, -0.13905418f, -0.12290850f, -0.01000971f, -0.03037060f,
    0.39488605f, -0.09549896f, -0.15554886f, -0.09870581f, -0.32585889f, 0.16385411f, -0.66178876f, -0.01068939f,
    0.42749116f, -0.03617831f, 0.10251885f, 0.09278689f, -0.00855402f, 0.11824970f, 0.52346027f, -1.00928521f,
    -0.25580010f, -0.76769739f, -0.05083702f, -0.04281148f, -0.07198556f, 0.05021743f, -0.06150537f, 0.09912156f,
    0.11508410f, 0.12000839f, -0.10893965f, 0.09321660f, -0.02941235f, -0.01810396f, 0.33289337f, 0.12815495f,
    -0.94648188f, -0.04694117f, -0.31672916f, -0.84634167f, -0.04261397f, 0.10982662f, -0.21059701f, -0.16276374f,
    -0.42083156f, 0.01997181f, 0.25702783f, -0.29668015f, 0.01985628f, 1.48981619f, -0.22346556f, 0.39073443f,
    0.21361549f, -0.51257271f, 0.06330717f, 0.78096551f, -0.09939938f, 0.03135423f, 0.10457201f, 0.11185098f,
    -0.44037232f, -0.02734831f, -0.39956930f, 0.14447378f, -0.17882147f, -0.99471599f, 0.31419489f, 0.29855141f,
    -0.97000116f, 0.61673552f, 0.04824990f, -0.08652949f, 0.94998807f, -0.47032097f, -0.70599502f, 0.07065234f,
    -0.50153476f, -0.14746608f, -0.55431682f, -0.78138328f, 0.02069241f, -0.00068212f, -0.89219266f, -1.32773936f,
    -0.20601781f, 1.46610606f, 0.28599820f, -0.15244929f, -0.25395775f, -0.52707279f, -0.33940163f, -0.29221895f,
    0.15477049f, 0.05714546f, 0.09714733f, -0.05990187f, -0.49708146f, 0.20750055f, -0.66716254f, -0.18883082f,
    0.82699716f, -0.23782818f, 1.10736287f, 1.07624316f, -0.07179998f, -0.52478725f, 0.04763025f, 0.68207002f,
    -0.03628369f, 0.02134829f, -0.12265538f, 0.03993752f, 0.08167458f, -0.21897285f, -0.05422663f, -0.02171984f,
    0.19948177f, 0.01691589f, -0.06521141f, -0.12699527f, 0.08436839f, -0.20717804f, -0.00822488f, 0.37382758f,
    0.02885391f, -0.12756269f, -0.10736771f, -0.10091028f, 0.00176772f, -0.01890858f, -0.17760153f, -0.02289557f,
    -0.14643937f, -0.05972777f, -0.10456943f, -0.02176242f, -0.10247287f, -0.10184892f, 0.09136987f, -0.07484984f,
    -0.08938272f, -0.04381071f, -0.02313597f, 0.09247097f, -0.05429384f, -0.02805945f, -0.31131405f, -0.48270839f,
    -0.18174188f, 0.01757166f, -0.01476926f, -0.01243954f, 0.06553056f, 0.07337859f, -0.04545524f, 0.03333512f,
    0.07206143f, -0.10151995f, -0.20318897f, -0.01991767f, 0.02248370f, -0.00983260f, -0.13906929f, 0.11483419f,
    0.03492795f, -0.12766270f, -0.15310392f, -0.49563462f, -0.21043597f, -0.09818567f, -0.12262997f, -0.05339976f,
    -0.15848298f, -0.07075424f, -0.13896166f, -0.15815343f, 0.16812624f, -0.17356817f, -0.13107662f, -0.11615203f,
    0.20816505f, -0.13108853f, 0.17871881f, -0.07097305f, -0.08078967f, 0.07623369f, -0.02495052f, -0.02828902f,
    -0.20276454f, 0.12189550f, -0.11921670f, -0.00842273f, -0.16954324f, -0.51651275f, -0.40864208f, -0.08457565f,
    -0.12004948f, 0.20470043f, -0.16726951f, -0.29897451f, -0.05986446f, 0.23239528f, -0.38506728f, 0.09692490f,
    -0.10892661f, -0.10139603f, -0.31594285f, -0.11669608f, 0.25369683f, 0.29523340f, -0.06283472f, 0.32687253f,
    -0.20062740f, -0.36517328f, 0.36802191f, -0.17363097f, -0.07029514f, -0.24519397f, -0.12793903f, -0.17149685f,
    0.02546915f, 0.00235868f, 0.05330307f, 0.10357552f, -0.09315967f, -0.22582872f, 0.06218607f, -0.13376127f,
    -0.23104575f, -0.14456056f, 0.16301116f, 0.09064276f, 0.16095145f, -0.22897379f, -0.06096274f, 0.20738487f,
    0.01415595f, -0.13756362f, -0.37045205f, -0.02982031f, -0.29884955f, -0.14685760f, -0.09078828f, 0.28159732f,
    0.13258161f, 0.12161148f, -0.06232824f, -0.06580505f, -0.02286163f, -0.25150484f, -0.08128746f, -0.38347787f,
    0.04811399f, -0.05191034f, -0.09921177f, -0.10877959f, -0.07934605f, -0.04439054f, -0.21574785f, -0.25900176f,
    -0.40421015f, -0.25996125f, -0.08836698f, -0.03418447f, 0.01781861f, 0.18673679f, 0.56904775f, -0.07757542f,
    -0.16508512f, -0.08689225f, -0.09011497f, 0.19806075f, -0.06214707f, -0.11003648f, -0.36856043f, 0.19050978f,
    -0.01314360f, -0.03176150f, 0.11453612f, -0.13387415f, 0.27610928f, 0.15773648f, -0.09265164f, -0.16864757f,
    -0.18257968f, -0.21613133f, -0.16703726f, -0.25981799f, -0.03666708f, 0.01111903f, -0.00138244f, -0.09103239f,
    0.56438333f, 0.09336967f, 0.12645729f, -0.25442812f, -0.08580287f, 0.02832058f, -0.03453228f, 0.27004099f,
    0.15548654f, 0.01432677f, -0.18847197f, -0.05947129f, -0.57940125f, 0.20836222f, -0.02706521f, 0.29443067f,
    -0.17014003f, 0.17914507f, -0.38363740f, -0.05069159f, -0.01749176f, -0.49436435f, -0.22609298f, -0.47045022f,
    -0.04529350f, -0.58027995f, -0.10143095f, -0.37320817f, 0.01746391f, 0.40185964f, 0.16137823f, -0.44680828f,
    -0.49670282f, -0.38564783f, -0.28977835f, 0.00728349f, -0.10241239f, 0.08408441f, 0.74386859f, -0.23736775f,
    -0.09702695f, -0.05653303f, -0.08700597f, 0.23316590f, -0.30376026f, -0.33617991f, -0.39220104f, 0.64335299f,
    0.01705343f, 0.35831299f, -0.19090047f, -0.09841443f, 0.20884444f, 0.17335603f, -0.01550863f, -0.08650745f,
    -0.38178858f, -0.54406899f, -0.47767475f, -0.58305043f, 0.04121511f, 0.02298666f, -0.01033754f, 0.12189373f,
    0.70134372f, -0.08976454f, -0.18544421f, 0.29642129f, -0.53885007f, 0.00205587f, -0.23707703f, 0.16537546f,
    -0.02169624f, -0.04124118f, -0.04820289f, 0.21363066f, -0.07192113f, -0.37857789f, 0.24735780f, -0.26820642f,
    -0.12359180f, 0.28279951f, -0.19010694f, -0.23815149f, 0.16132466f, -0.08849377f, -0.34449333f, 0.18563448f,
    0.23929821f, -0.04962182f, 0.20068355f, -0.22002847f, 0.06679130f, -0.24391010f, -0.04506738f, -0.25793132f,
    0.37907833f, -0.22710139f, -0.33513469f, 0.12488604f, -0.24447761f, 0.00061907f, -0.74460340f, -0.00750339f,
    0.47172162f, 0.13299283f, 0.18691017f, 0.08038106f, 0.07647315f, -0.08343197f, 0.56524545f, -0.28816608f,
    -0.42022994f, -0.45135736f, -0.17472145f, 0.01674686f, 0.01303795f, 0.05455221f, -0.01283608f, 0.05784144f,
    -0.00180993f, -0.02924468f, -0.12561037f, -0.08038457f, 0.15984315f, -0.12009312f, 0.24522080f, 0.23921210f,
    -0.55808222f, 0.10180738f, -0.25023252f, -0.19007526f, -0.13575138f, 0.33616480f, 0.09119863f, -0.18887362f,
    0.14115883f, -0.17341018f, -0.09467719f, -0.13689592f, 0.17086615f, 0.01900586f, -0.09442125f, 0.45693597f,
    0.13279913f, 0.08996340f, -0.13105470f, 0.01522277f, 0.00786101f, 0.03384770f, 0.03348630f, 0.31018063f,
    0.00115740f, -0.08355904f, -0.21840258f, 0.19418047f, 0.11346050f, -0.05708047f, 0.22053237f, 0.05004589f,
    -0.39956048f, 0.02043509f, -0.14047101f, -0.09203932f, 0.07028122f, 0.01498642f, -0.14430352f, 0.11988875f,
    -0.21095251f, 0.01043558f, -0.11079073f, -0.00257598f, -0.17093424f, 0.02688918f, -0.20863046f, -2.96172667f,
    -0.20379059f, 0.44889674f, 0.05018947f, 0.04858047f, 0.07514824f, 0.19804752f, 0.01131253f, -0.22062780f,
    -0.06755017f, 0.08047864f, 0.04747782f, -0.04183581f, 0.05125444f, 0.18140489f, -0.09968845f, -0.02308202f,
    0.33580849f, -0.03066676f, -0.49177667f, -0.98763180f, 0.03926430f, -0.06277969f, -0.10688410f, -0.07677368f,
    -0.10148587f, -0.11112933f, -0.46592021f, -0.51798123f, 0.32118133f, -0.45770562f, -0.37028933f, 0.02354720f,
    0.09469606f, -0.29948762f, 0.39076266f, -0.11899219f, -0.32567060f, 0.32700679f, 0.41530356f, 0.87689942f,
    -0.40778789f, 0.31259492f, -0.36549884f, 0.50750828f, -0.22629175f, -0.11073074f, -0.65783471f, 0.19431822f,
    -0.71948290f, 0.33451942f, 0.32354462f, -0.24184713f, 0.04629952f, 0.27039108f, 1.38730371f, 0.55106419f,
    -0.39217234f, -0.25099224f, -0.36779666f, 0.11059409f, 0.26535708f, 0.44837302f, -0.60099477f, 1.60964894f,
    0.90810615f, 0.31390831f, 0.34419933f, -0.21332963f, 0.20532854f, -0.09210446f, -0.06638652f, -0.21280086f,
    0.41099322f, 0.49529335f, 0.21945228f, 0.22320598f, -0.03781805f, -0.03791133f, 0.13118291f, -0.40202054f,
    0.55846912f, -0.18268633f, -0.37357157f, 0.21815464f, 0.17612521f, -0.27676177f, -0.10178550f, 0.13204794f,
    -0.10026219f, -0.06888057f, -0.27864200f, -0.09626321f, 0.05915420f, 0.12025974f, -0.07280058f, -0.07589152f,
    0.30362165f, -0.22470967f, 0.01446342f, -0.09155063f, -0.11324679f, 0.04863034f, 0.07049989f, 0.06787436f,
    -0.08366137f, 0.18649176f, -0.11627829f, 0.04274311f, -0.21104994f, -0.48191506f, -0.20985338f, 0.08281925f,
    -0.01520988f, 0.10454491f, -0.17818266f, -0.23583075f, -0.02792104f, 0.18667668f, -0.40407827f, 0.07880700f,
    0.00140063f, -0.21862753f, -0.24690381f, -0.06147787f, 0.51536018f, 0.31616998f, -0.06430544f, 0.25519967f,
    -0.16568388f, -0.09888184f, 0.31190208f, -0.21689339f, -0.13202818f, -0.09183265f, -0.10562816f, -0.03393362f,
    0.14482521f, 0.04589355f, 0.18438818f, 0.18411209f, 0.05737598f, -0.02802982f, 0.07373966f, -0.16833913f,
    -0.22375382f, -0.11584048f, 0.35379687f, -0.03275600f, 0.29398116f, -0.23470511f, -0.04232129f, 0.23499431f,
    0.03690082f, -0.23725247f, 0.11607239f, -0.35150060f, 0.15555295f, 0.06228976f, -0.16356149f, 0.19373018f,
    0.22682390f, -0.09195236f, 0.15885545f, -0.06346405f, -0.21178979f, 0.04787793f, 0.05584817f, 0.10077096f,
    -0.14263089f, 0.16341186f, -0.16764560f, -0.01654628f, -0.00180856f, -0.18721426f, -0.23903544f, -0.08969250f,
    -0.23908918f, 0.18262391f, -0.08444481f, -0.29015642f, -0.05662077f, 0.19737887f, -0.24397196f, 0.06150253f,
    -0.16486235f, -0.18872844f, -0.12426861f, 0.23835069f, 0.22290525f, 0.32354560f, -0.12172651f, -0.20405856f,
    -0.01172278f, 0.25757232f, 0.14738984f, -0.09852398f, 0.05104138f, 0.07876401f, -0.15464728f, -0.06664828f,
    0.25347245f, -0.06985845f, -0.04986329f, 0.16887051f, 0.02260930f, -0.24200332f, 0.01904132f, -0.04561020f,
    0.02868687f, -0.11106578f, 0.15354210f, 0.00851594f, 0.05371021f, -0.06286345f, 0.08757059f, 0.36118039f,
    -0.07501345f, -0.00248821f, -0.02780146f, 0.12084578f, -0.01455848f, -0.16394511f, 0.07943567f, -0.05169242f,
    0.00281982f, 0.08730146f, -0.01419242f, 0.10768555f, -0.16131063f, -0.01783388f, 0.11816182f, 0.28470960f,
    -0.02047197f, 0.07689065f, -0.11756542f, 0.02582120f, -0.03855292f, -0.20097266f, 0.21524586f, 0.02742159f,
    -0.06623223f, 0.09370089f, 0.08751097f, -0.10803574f, 0.19246148f, 0.02733114f, -0.61788237f, 0.03463095f,
    0.17362814f, 0.06224903f, 0.14417996f, 0.02515346f, 0.17406631f, 0.14819650f, -0.09931386f, -0.48248440f,
    -0.21067224f, -0.18533686f, 0.18351711f, 0.06116911f, -0.20851825f, -0.00492971f, -0.09353025f, 0.06002692f,
    0.06157605f, -0.04179107f, 0.11624343f, 0.00402559f, -0.15093218f, 0.10738418f, -0.03954766f, 0.10629683f,
    -0.52274591f, -0.10248471f, -0.02952559f, 0.08708643f, 0.03090832f, 0.00669399f, 0.05202383f, -0.12480099f,
    0.01385302f, -0.10222703f, -0.05704298f, 0.14518990f, 0.06412519f, -0.11229862f, 0.16936693f, -0.04377125f,
    -0.06555104f, 0.17352092f, -0.03685747f, -0.13493277f, 0.16693988f, 0.10042251f, -0.07407329f, 0.28839749f,
    0.05873627f, 0.02302962f, 0.21693571f, -0.14081948f, -0.10237464f, -0.30136064f, -0.12523974f, -0.09559619f,
    0.19726792f, 0.03384167f, -0.13267337f, -0.04822864f, -0.09751095f, 0.01258384f, -0.89960349f, 0.12242839f,
    0.32282385f, 0.03885124f, 0.19752955f, -0.07162213f, 0.14777027f, 0.19195509f, 0.15819177f, -0.46633899f,
    -0.21522835f, -0.23021455f, 0.04223366f, -0.05685846f, -0.10253885f, 0.09838115f, 0.07348730f, 0.12499516f,
    -0.09315940f, -0.01402785f, -0.17295800f, -0.04674728f, -0.06757507f, 0.10781217f, 0.08812999f, 0.01765922f,
    -0.52021760f, 0.19900449f, -0.19532137f, 0.02706300f, -0.02796842f, 0.03017952f, 0.16099542f, 0.06630468f,
    -0.08483054f, -0.13937064f, -0.49933410f, -0.68617833f, 0.33110395f, -0.56786728f, -0.63535368f, 0.33578888f,
    0.02502461f, -0.33266011f, 0.13096786f, 0.41056898f, -0.54293209f, 0.20300277f, 0.21133721f, 0.71252489f,
    -0.41678357f, 0.07074953f, -0.68084478f, 0.30054182f, -0.42863619f, 0.48576969f, -0.59199375f, 0.39803433f,
    -1.12346888f, 0.00041732f, 0.90403944f, -0.28584191f, -0.43521324f, -0.38759264f, 1.24008489f, 0.31659827f,
    -0.46409601f, -0.13114342f, -0.76617444f, -0.10734379f, -0.08399445f, 0.04609323f, -0.76311809f, 2.53437614f,
    0.96971530f, 0.02799429f, 0.13492599f, -0.43671659f, -0.11150375f, -0.25599161f, -0.34679091f, -0.56109017f,
    0.20036145f, 0.26753676f, 0.28420144f, 0.06390581f, -0.25974515f, -0.09572899f, -0.72987074f, -0.37755001f,
    0.38524613f, -0.51058733f, -1.18640709f, -0.39235279f, 0.18960246f, -0.71135342f, -0.17802331f, -0.35273466f,
    -0.35147125f, -0.01654083f, 0.03654994f, -0.28992188f, 0.05321937f, 0.17032884f, -0.26123786f, 0.41455370f,
    -0.00004796f, -0.16421889f, 0.05542656f, 0.31632924f, -0.25664905f, -0.18914019f, 0.15662082f, -0.20796657f,
    -0.17239903f, -0.11343518f, -0.25742656f, -0.03601810f, -0.28137869f, -0.09911777f, -0.29396847f, -0.06598784f,
    -0.25327277f, 0.04344085f, 0.14066853f, -0.11407694f, 0.24427621f, -0.31851122f, 0.02411041f, -0.07124373f,
    -0.28524154f, -0.22870132f, -0.35595044f, -0.41050598f, -0.10578275f, -0.15059477f, -0.38122469f, 0.75559038f,
    -0.11476239f, -0.26131809f, 0.05559640f, -0.24208650f, -0.40192124f, -0.38348439f, -0.36758161f, -0.29724956f,
    0.00518904f, -0.25280383f, -0.01888756f, -0.01158640f, -0.40327904f, -0.22731899f, -0.26287201f, -0.17617448f,
    -0.23867203f, -0.33071062f, 0.22172399f, -0.03491359f, 0.01044294f, -0.34775180f, -0.08962405f, -0.09534521f,
    0.00100221f, -0.18144572f, 0.02400975f, -0.19473219f, 0.21107735f, -0.02965354f, 0.00577090f, -0.04742383f,
    0.27897447f, -0.11330535f, 0.19483513f, -0.20830671f, -0.22080122f, 0.05310892f, 0.06070767f, 0.31540269f,
    -0.25411752f, 0.14829746f, -0.17232259f, 0.05051575f, -0.15679388f, -0.38191667f, -0.23891579f, -0.07087880f,
    -0.10313771f, 0.16584094f, -0.10601459f, -0.21483548f, 0.02117032f, 0.29281783f, -0.47729066f, 0.05072468f,
    -0.22687712f, -0.10393114f, -0.06942881f, 0.14802414f, 0.29656008f, 0.30722040f, -0.09583692f, 0.03716112f,
    -0.01891100f, -0.07177460f, 0.20366445f, -0.14521566f, 0.00144268f, 0.02254908f, -0.13312609f, -0.09165521f,
    0.11330475f, -0.04339438f, -0.04525450f, 0.31000093f, 0.10676702f, -0.30936587f, 0.07527854f, -0.20718654f,
    -0.19309364f, -0.09609661f, 0.29208887f, 0.06858812f, 0.22538382f, -0.16995308f, -0.13388555f, 0.30337378f,
    -0.10024631f, 0.01203059f, -0.06580302f, -0.08502863f, -0.11704035f, 0.02531753f, -0.14003997f, -0.05401941f,
    -0.13823345f, 0.02491198f, 0.00304685f, 0.01166924f, -0.00892784f, -0.21218626f, -0.00980039f, -0.34158492f,
    -0.01451373f, -0.19234866f, -0.16645606f, -0.09544960f, -0.00414166f, 0.17090471f, 0.03283392f, -0.04658750f,
    -0.25107655f, -0.06917812f, 0.00307708f, 0.05534013f, -0.13294752f, 0.08599835f, 0.40965062f, 0.05438272f,
    -0.23039034f, -0.12981200f, -0.00175323f, 0.02717381f, -0.01457616f, -0.09633085f, -0.28002480f, 0.81600356f,
    0.04582941f, -0.01384584f, 0.15787664f, -0.07029220f, 0.16447860f, 0.07075378f, 0.00461686f, -0.17412049f,
    -0.03162529f, -0.06595639f, -0.22988832f, -0.13842812f, -0.05566185f, -0.04994565f, -0.00538812f, 0.10513894f,
    0.35365117f, -0.14659677f, 0.03352626f, 0.35134035f, -0.07381037f, -0.05593799f, -0.11940385f, 0.11615344f,
    0.08730090f, -0.11837939f, -0.08794606f, 0.11131134f, -0.07113031f, -0.17939447f, 0.09767342f, -0.18257964f,
    0.07183263f, 0.08488812f, -0.08656055f, -0.11707176f, -0.02215445f, -0.04937162f, -0.20984073f, 0.36760196f,
    0.11761919f, 0.05683319f, 0.11165938f, -0.08746661f, -0.09816886f, 0.00304351f, 0.08963817f, -0.10033899f,
    0.08901642f, -0.00165679f, -0.09745076f, 0.10654003f, 0.01617504f, -0.04071264f, -0.70300698f, -0.07645102f,
    0.20348951f, -0.09099026f, 0.20344236f, -0.00285091f, -0.03391009f, -0.05559555f, 0.33051127f, -0.52456206f,
    -0.27745116f, -0.24626045f, 0.02930590f, 0.06682639f, -0.01638610f, 0.00728239f, -0.04335982f, 0.05015325f,
    -0.02850377f, -0.02762076f, -0.08523102f, 0.08936440f, 0.00774091f, 0.04332685f, -0.02777618f, 0.04205082f,
    -0.47808161f, -0.07875683f, -0.13834085f, -0.27579519f, -0.10261814f, 0.15362403f, -0.18486549f, -0.04364463f,
    -0.14601429f, -0.19522163f, 0.10005847f, -0.32802269f, 0.16837399f, 0.11680611f, -0.01816873f, 0.38441700f,
    0.23946489f, -0.12939909f, 0.05593058f, -0.02517289f, -0.09618856f, 0.14002264f, 0.01049941f, 0.14047582f,
    -0.27588883f, 0.20238663f, -0.04617152f, 0.02638036f, -0.16674832f, -0.13688669f, -0.22582367f, -0.03162987f,
    -0.02310214f, 0.14420162f, -0.02011504f, -0.25580311f, -0.02861508f, 0.12735796f, -0.13898793f, 0.18305895f,
    -0.20004633f, -0.27047163f, -0.08352582f, 0.26314145f, 0.05649485f, 0.26100260f, -0.09708159f, -0.02831404f,
    0.14764719f, 0.07142302f, 0.37264046f, -0.28187451f, -0.12180627f, -0.13490602f, -0.16573316f, -0.09076162f,
    0.25850123f, 0.04419432f, -0.00801997f, 0.20130095f, -0.03878514f, -0.33287331f, 0.13226961f, -0.11467005f,
    0.10514027f, -0.12536071f, 0.21543567f, 0.33841187f, 0.18189012f, -0.06679302f, -0.21910031f, 0.00770243f,
    0.02151719f, -0.20651880f, -0.05712769f, -0.08608670f, 0.11183666f, -0.36721525f, 0.05512626f, -0.04515343f,
    0.09473797f, 0.09046350f, -0.09959300f, -0.07616922f, -0.11484890f, 0.07997288f, -0.09696861f, 0.12854710f,
    0.12588783f, 0.14740720f, -0.06447981f, 0.14502826f, 0.02046748f, -0.06138850f, 0.09816336f, 0.06967191f,
    0.14465450f, 0.13525946f, -0.17048876f, -0.07626047f, 0.09230457f, -0.05608226f, -0.70905638f, 0.01647856f,
    0.16437349f, -0.08920079f, 0.00449701f, 0.07461216f, 0.02472945f, 0.16192000f, 0.22774577f, -1.09037328f,
    -0.34414518f, -0.29435614f, -0.00649925f, -0.06043481f, -0.03043824f, 0.01619866f, 0.03700698f, 0.05134518f,
    0.11292320f, -0.07776639f, 0.08396686f, 0.10302947f, 0.05218202f, 0.14764084f, 0.00195636f, 0.14857627f,
    -0.50836039f, -0.02643209f, -0.03190547f, -0.46909657f, -0.09556778f, 0.07774430f, -0.23187697f, -0.15334608f,
    0.11315443f, 0.10050717f, -0.09650175f, 0.09203432f, 0.05514248f, -0.42512888f, 0.08776154f, -0.05615084f,
    -0.14385992f, 0.25711223f, 0.02079560f, -0.35674131f, 0.02423638f, -0.00905212f, -0.09383424f, 0.33723661f,
    0.06571164f, 0.04806080f, 0.07893924f, 0.01329255f, -0.03275249f, -0.13588387f, 0.04928545f, -0.27264610f,
    0.41919160f, -0.10718524f, -0.26033589f, 0.10269003f, -0.24109617f, -0.04653954f, -0.83426082f, 0.01205419f,
    0.25236487f, -0.02212109f, 0.12801868f, 0.14707431f, -0.05081339f, 0.07569324f, 0.47338018f, -0.90058953f,
    -0.20603764f, -0.32260546f, 0.04222728f, 0.10695300f, 0.01664165f, 0.05972407f, 0.10934430f, 0.06988911f,
    -0.14170144f, -0.08643240f, -0.00884531f, -0.05971629f, 0.05164670f, -0.06435797f, 0.06868406f, 0.21417183f,
    -0.62647748f, 0.04644763f, -0.22446507f, -0.44358692f, -0.04850127f, 0.30135760f, -0.06482747f, -0.14626238f,
    -0.63455993f, 0.56761461f, 0.26506266f, 0.52966833f, -0.03000356f, 0.60425377f, -0.11933037f, 1.67643082f,
    -0.55425400f, -0.13379541f, 0.66078532f, -0.63909298f, -0.02510048f, 0.48261678f, 0.47728747f, -0.98855728f,
    0.29578862f, 0.43769076f, 0.01401540f, 0.36512506f, -0.07887357f, -0.39838821f, 1.12589288f, 0.22389013f,
    0.13069630f, 0.11746409f, 0.94911444f, 0.05873784f, 0.34787643f, -0.41772085f, -1.25542724f, 0.47401440f,
    0.46705583f, -0.05470092f, 0.33956069f, -0.64938074f, 0.31466988f, 0.44597921f, 0.20794411f, -1.00541282f,
    0.09917177f, -0.80241352f, 0.37485191f, 0.06030035f, -0.65558076f, -0.59546292f, -0.36918059f, 0.03361250f,
    0.24117982f, -0.12784524f, 0.11322755f, 0.40490600f, -0.27148104f, -0.58467609f, -0.48369217f, 0.12666376f,
    -0.77836055f, 0.32185459f, 1.73820615f, 2.07475114f, 0.49676463f, 0.22173887f, 0.36487082f, -0.37040690f,
    -0.08570471f, -0.29407221f, 0.15689614f, -0.37385941f, 0.10019453f, 0.51450807f, -0.10720610f, 0.72643942f,
    0.13123108f, -0.17241842f, 0.00066777f, 0.08699913f, -0.27019721f, -0.06388831f, -0.01703686f, 0.19230843f,
    -0.27554852f, -0.25497651f, -0.14993215f, 0.07288524f, -0.22131735f, 0.39661509f, -0.43366721f, -0.18257225f,
    -0.32250485f, 0.00600098f, 0.14527316f, -0.20177923f, -0.04998767f, -0.29888499f, -0.09001829f, -0.17453511f,
    -0.40621856f, -0.08408900f, -0.26161963f, 0.00482207f, -0.19974041f, -0.13218953f, -0.51837128f, 0.05928149f,
    0.00662803f, 0.19321509f, -0.12554601f, -0.17848054f, -0.52646011f, -0.30075973f, -0.11718956f, -0.17031395f,
    0.05796902f, -0.12062347f, -0.13204631f, -0.20439345f, -0.19145030f, -0.13251743f, -0.20555486f, -0.15850937f,
    0.07384358f, -0.24867488f, 0.06695545f, 1.13193238f, -0.07847127f, -0.17656156f, -0.36814210f, -0.65147626f,
    -0.05408046f, 0.06474791f, 0.05093462f, 0.00643265f, 0.15097927f, -0.48074877f, -0.04012315f, -0.03391178f,
    0.14786626f, -0.02222181f, 0.20064887f, -0.13502602f, 0.06229401f, 0.05045487f, -0.06235517f, 0.57358915f,
    0.11939642f, 0.22137304f, 0.20979923f, 0.04093161f, 0.03474043f, -0.19376850f, -0.02214332f, -0.12938030f,
    0.37463474f, 0.01786376f, 0.02411638f, -0.02787622f, -0.10645740f, 0.03823856f, -0.96290618f, 0.07047916f,
    0.24319866f, -0.00394548f, 0.05916988f, 0.12261259f, 0.11801412f, 0.04840618f, 0.19509494f, -0.33872002f,
    -0.30261511f, -0.62637138f, 0.01573516f, -0.12533484f, -0.05806755f, -0.09093423f, -0.04758816f, 0.08830134f,
    0.18925449f, 0.05872250f, 0.11219598f, 0.04129139f, -0.07831498f, 0.13825487f, 0.16058815f, 0.09595570f,
    -0.81740636f, 0.06406394f, -0.13887233f, -0.12429031f, 0.09954531f, 0.17726813f, 0.08416869f, 0.02662032f,
    -0.11499009f, -0.32833028f, -0.66820270f, -0.87668562f, 0.63404983f, -0.40169248f, -0.53834426f, 0.06160516f,
    0.59215415f, -0.71947980f, 0.57305920f, 0.41628301f, -0.58874911f, 0.66821271f, 0.69788229f, 1.29898608f,
    -0.95771897f, 0.42027858f, -0.77935082f, 0.69923288f, -0.19666800f, 0.60859805f, -0.76322854f, 0.74166441f,
    -1.42989945f, 0.46315882f, 1.00452077f, -0.61109841f, 0.27618665f, 0.46316853f, 1.75715673f, 0.75580019f,
    -1.39346635f, -0.43520612f, -0.92318547f, 0.30883044f, 0.55988669f, 0.45393807f, -1.43288291f, 4.46914339f,
    3.00381327f, 0.23732081f, 0.59855813f, -0.45933482f, 0.49619514f, -0.21738140f, -0.26485470f, -0.48081312f,
    0.72219723f, 0.80156457f, 0.63561296f, 0.52025664f, -0.08464524f, 0.10804530f, 0.20138517f, -0.95259607f,
    0.62779564f, -0.35912734f, -0.53854185f, 0.55280226f, 0.45519465f, -0.87062192f, 0.07218680f, -0.09787987f,
    -0.00710753f, -0.14653228f, -0.04658687f, 0.01805362f, -0.01702470f, -0.08116203f, -0.10927561f, 0.08187995f,
    -0.01218101f, 0.14381102f, 0.01274207f, -0.05202375f, -0.07234350f, -0.08503792f, -0.21884912f, 0.16575797f,
    -0.06483083f, 0.08585700f, 0.03342463f, 0.09768364f, 0.07462514f, -0.01222102f, -0.03611656f, -0.23150913f,
    0.00764002f, -0.06184338f, -0.15619648f, -0.13311718f, -0.20662013f, 0.05495087f, -0.31588879f, 0.03405008f,
    0.21798508f, -0.09952413f, 0.05587044f, 0.11491606f, -0.02785293f, -0.04052250f, 0.02239093f, -0.23249485f,
    -0.17977305f, -0.13461643f, 0.03543575f, 0.06109226f, -0.00437930f, 0.00244637f, -0.02399117f, -0.00665072f,
    -0.01710206f, 0.07035351f, -0.09199215f, -0.13357614f, -0.07342549f, 0.08561312f, -0.02174778f, 0.00564822f,
    -0.20940943f, 0.05545048f, -0.15733445f, -0.09203602f, -0.10450670f, -0.10154998f, -0.02231609f, 0.10239454f,
    0.11876650f, 0.04538982f, -0.03969765f, 0.11048494f, -0.12905198f, -0.05245003f, 0.19018546f, -0.10624266f,
    0.04548202f, 0.14689350f, -0.23342374f, -0.14343154f, 0.21974786f, -0.02262057f, -0.11522558f, 0.17053761f,
    0.14271261f, -0.13806440f, 0.26016390f, -0.19353908f, 0.00995657f, -0.10174961f, 0.04470576f, -0.18183729f,
    0.29140747f, -0.26893380f, -0.17467175f, 0.01020815f, -0.19581133f, -0.02110656f, -0.60822874f, -0.03232161f,
    0.41831625f, -0.05121836f, 0.13016665f, -0.03361059f, 0.11099096f, 0.03651724f, 0.24191226f, -0.11157067f,
    -0.36798626f, -0.31663305f, 0.03217636f, 0.03246899f, -0.13906357f, 0.11741356f, 0.10783795f, 0.12705082f,
    -0.20227322f, -0.16651860f, -0.26136360f, -0.07578392f, 0.02836471f, 0.04313020f, -0.01075581f, 0.29253879f,
    -0.40712583f, 0.05778793f, -0.32075474f, -0.01264948f, -0.16800222f, 0.16508983f, -0.05698962f, -0.16107672f,
    0.05576431f, 0.14232956f, 0.17248943f, 0.04412843f, -0.00590012f, -0.24236004f, 0.04132051f, -0.17428076f,
    -0.03255874f, -0.08631584f, 0.07701313f, -0.14013873f, 0.12916183f, 0.05981869f, -0.00498081f, 0.55982357f,
    0.10791481f, 0.14897764f, 0.15779935f, 0.09346508f, -0.06772823f, -0.16317095f, -0.05217347f, 0.01715113f,
    0.23177113f, -0.08003958f, 0.04852984f, 0.02395727f, -0.18588890f, 0.00407288f, -0.65142429f, 0.01902904f,
    0.12300932f, -0.01021237f, 0.11912753f, -0.05733534f, 0.22539303f, 0.16592677f, 0.13934262f, 0.08173038f,
    -0.24129415f, -0.27628925f, 0.08360910f, 0.07337026f, -0.08007426f, 0.02614158f, 0.07446028f, 0.17243370f,
    -0.00738109f, 0.14855178f, -0.13284405f, -0.06912065f, 0.07158509f, 0.12083233f, 0.04080023f, 0.01012269f,
    -0.67204797f, -0.07204005f, -0.17198411f, 0.20844837f, 0.01753789f, 0.00752623f, 0.09185690f, -0.06539060f,
    -0.20535369f, -0.27704784f, -0.13557915f, -0.17070703f, 0.01606504f, 0.18505162f, -0.20707041f, 0.32593247f,
    0.22668748f, -0.13284342f, 0.11321500f, 0.16487896f, -0.16498601f, 0.03456961f, -0.06294025f, -0.61665797f,
    -0.12391665f, 0.18457252f, -0.20851600f, 0.13366397f, -0.27579343f, -0.15734628f, -0.53391892f, -0.13592006f,
    -0.22840884f, 0.14255816f, 0.02178318f, -0.30498108f, -0.03032974f, -0.03206658f, 0.17710696f, 0.09282418f,
    -0.28226689f, -0.23353982f, -0.10069717f, 0.07151756f, 0.05447442f, 0.13616706f, -0.22149044f, 0.09495734f,
    0.08297617f, -0.21666318f, 0.27168909f, -0.12511453f, -0.02559905f, -0.13144262f, -0.22988981f, -0.27938551f,
    0.15789312f, -0.10006013f, -0.00420698f, 0.11869217f, -0.07719137f, -0.24325028f, -0.16031249f, -0.09700637f,
    0.03742830f, -0.20595998f, -0.37078080f, -0.03275900f, -0.00769371f, -0.26330042f, -0.23516552f, 0.14783235f,
    0.14951864f, 0.10576944f, -0.10297485f, 0.07270824f, -0.28171536f, -0.10871209f, 0.17741570f, -0.20148444f,
    -0.00872767f, 0.22705200f, -0.30718598f, -0.31501484f, 0.02478572f, -0.23151563f, -0.36520693f, 0.10888186f,
    0.27812940f, -0.05989665f, 0.30313259f, -0.24622798f, 0.12908742f, -0.04377360f, 0.05392566f, -0.36848965f,
    0.33392534f, -0.13149263f, -0.22774009f, 0.17761393f, -0.38444522f, 0.07608563f, -0.47713417f, -0.10198722f,
    0.51208645f, -0.01783113f, 0.40370148f, -0.06813999f, -0.15816568f, -0.21596740f, 0.40737268f, -0.12241361f,
    -0.46950692f, -0.38307342f, -0.19166285f, 0.14067009f, -0.03172191f, 0.11494226f, 0.07595395f, 0.14345771f,
    -0.10837321f, -0.15141387f, -0.18290485f, -0.18600783f, 0.05186122f, 0.01875699f, 0.15994392f, 0.20294541f,
    -0.47829852f, 0.14013191f, -0.23833418f, -0.13834849f, -0.26689899f, 0.28651789f, -0.01793800f, -0.08946940f,
    -0.18735874f, -0.28951180f, 0.00947651f, -0.54269725f, 0.31653365f, 0.64329177f, -0.36743873f, -0.07161274f,
    0.96477163f, -0.14159945f, 0.09684787f, 0.23700415f, -0.20984586f, 0.09229505f, 0.05806832f, 1.09913039f,
    -0.42930794f, 0.28296027f, -0.23312679f, 0.19684471f, 0.23180133f, -1.05470335f, -0.48976836f, 0.05276681f,
    -0.63815296f, 0.17280361f, -0.58431739f, -0.15309672f, 0.26650518f, -0.32614234f, -0.00497524f, 0.16315284f,
    -0.54918528f, -0.00122371f, -0.40898818f, -0.15172970f, 0.38016504f, 0.18642238f, -0.51317012f, -4.72106647f,
    -0.41308314f, 1.05595124f, 0.39446861f, -0.06878576f, 0.44059721f, 0.33068919f, -0.18173668f, -0.40581891f,
    0.19892567f, 0.34797025f, 0.18909003f, 0.19295122f, -0.56010270f, 0.56145406f, -0.45917553f, -0.31066009f,
    0.87423480f, -0.25928438f, 0.50223756f, -1.77019250f, 0.06033193f, -0.38558218f, 0.03041361f, 0.37672395f,
    -0.05249295f, -0.05755818f, 0.02821995f, 0.03348286f, -0.00692797f, -0.12712286f, -0.06708677f, 0.47330838f,
    -0.07673582f, 0.00624012f, -0.17533283f, -0.19541286f, -0.08365039f, -0.04662143f, -0.12232605f, 0.22211049f,
    -0.13413188f, -0.14673874f, -0.01659852f, -0.14177507f, 0.03105916f, -0.01362253f, 0.18435265f, -0.23624612f,
    -0.21471086f, -0.08655217f, -0.08584197f, 0.11276926f, 0.01531788f, -0.02384912f, 0.18619910f, -0.03988625f,
    -0.06863699f, -0.12248933f, -0.15211543f, 0.07648142f, -0.03645899f, -0.00439505f, -0.28093410f, 0.49096853f,
    -0.04177845f, -0.22040276f, 0.10512758f, 0.03249905f, -0.00155955f, -0.00139989f, -0.07535744f, 0.07624919f,
    0.01192180f, -0.07849462f, -0.04043896f, -0.06984972f, -0.17092834f, 0.00983196f, 0.00361090f, 0.11949633f,
    0.12095705f, -0.04619106f, 0.15328871f, 0.13036384f, -0.00199421f, 0.05878711f, -0.09721313f, 0.17429836f,
    -0.07792073f, -0.24071214f, -0.18783139f, 0.01975608f, 0.15247093f, -0.29856333f, 0.06357948f, -0.08142665f,
    0.18059722f, 0.11932909f, 0.06868863f, -0.14399283f, -0.07490674f, 0.28754866f, 0.14027055f, 0.47949463f,
    0.05666907f, 0.26553556f, 0.07847022f, 0.21354586f, -0.02418739f, 0.04639542f, -0.07628714f, 0.08803239f,
    0.07857487f, 0.02194901f, 0.08536464f, -0.08468714f, -0.05254207f, 0.09248904f, -0.58397496f, 0.08742253f,
    0.27677053f, 0.00432045f, 0.19485387f, 0.08079497f, 0.21396878f, 0.22342414f, 0.24186188f, -0.50158083f,
    -0.03868263f, -0.39087820f, 0.17793901f, -0.10148320f, -0.10521907f, -0.05530280f, 0.04770628f, -0.05775908f,
    0.23306705f, 0.03894048f, 0.18201391f, 0.15099558f, -0.04544834f, -0.03581950f, 0.02240239f, 0.11499121f,
    -0.62202305f, -0.08207539f, -0.20542325f, -0.59670454f, 0.14659087f, 0.08975048f, -0.06779587f, -0.16982420f,
    -0.03734427f, -0.00130546f, 0.18168598f, 0.02407030f, 0.00592113f, -0.04333987f, 0.00974164f, -0.02617560f,
    -0.04536751f, 0.00191079f, -0.03363065f, -0.09934049f, -0.13617402f, -0.05613267f, -0.11543719f, 0.29642162f,
    0.03429781f, -0.08325964f, 0.05749385f, 0.01320824f, 0.03428625f, 0.07478780f, 0.06589409f, -0.04722465f,
    -0.28218997f, -0.11742215f, -0.00047558f, 0.09890362f, -0.03588505f, -0.00828452f, -0.01967336f, -0.12288892f,
    0.03383642f, -0.01775659f, 0.01931681f, 0.10409164f, -0.16602199f, 0.01913464f, -0.38019386f, 0.25712642f,
    -0.01936803f, 0.13674758f, -0.11091830f, 0.02279762f, -0.09887775f, 0.07676066f, -0.04027755f, -0.13085261f,
    -0.00224512f, -0.09767942f, -0.09004216f, -0.06403620f, -0.05597172f, -0.01021662f, -0.02042892f, 0.01560315f,
    0.20848757f, 0.06050115f, -0.22091676f, -0.22999312f, -0.13769892f, -0.04400987f, -0.03146352f, -0.16224247f
};
float biases2[] = {
    -0.03094628f, 0.29491484f, 0.03065449f, 0.08275120f, -0.01971353f, -0.08023171f, 0.08695447f, -0.21239395f,
    0.23967147f, -0.16419379f, 0.18829705f, 0.20033032f, 0.20411383f, 0.01845240f, -0.45102671f, 0.15600966f,
    -0.11379594f, 0.18458818f, -0.26640421f, 0.16145077f, 0.09139594f, -0.09100398f, 0.16524501f, 0.03865500f,
    -0.05751481f, 0.33735985f, 0.65552330f, 0.08727423f, -0.03711721f, 0.16393453f, -0.05504093f, 0.01305679f,
    0.06108175f, -0.12353062f, 0.31768766f, 0.47798359f, 0.25135452f, -0.06219549f, -0.39091927f, -0.18090568f,
    -0.08409790f, 0.07791668f, 0.11092893f, -0.31367481f, 0.05144115f, 0.06438295f, 0.17262593f, 0.11673891f,
    -0.01244659f, 0.14908534f, 0.29585987f, -0.11935191f, -0.04297011f, 0.01334993f, -0.66160792f, 0.18107264f,
    0.29574868f, -0.04226797f, -0.03816040f, 0.27155668f, -0.12483274f, 0.07704757f, 0.04337187f, 0.06446898f
};
float weights3[] = {
    -0.51577485f, -0.11213347f, 0.06731661f, 0.10808375f, -0.46879449f, -0.59846562f, -0.45330596f, -0.10954045f,
    0.07591297f, -0.56275582f, 0.01015399f, 0.08245575f, 0.16930600f, -0.06023806f, -0.09005030f, 0.20775332f,
    -0.00363949f, 0.00328470f, -0.11904903f, 0.18571965f, 0.16774227f, -0.53972971f, 0.20220378f, 0.00144335f,
    -0.10964661f, -0.00909706f, 0.28672880f, 0.08031843f, 0.04195231f, -0.04361479f, 0.05658156f, -0.36913487f,
    -0.01952714f, -0.48220941f, 0.14652747f, 0.23509900f, 0.13588046f, 0.09497566f, -0.23910065f, -0.56621027f,
    -0.43074995f, 0.03595516f, 0.06878007f, -0.16169360f, -0.43024296f, -0.46933848f, 0.19912861f, 0.04352222f,
    -0.41696104f, 0.06923342f, 0.08181912f, 0.11865179f, -0.43645456f, -0.09817684f, 0.33815423f, 0.11066278f,
    0.13256092f, -0.09329829f, -0.38531399f, 0.24840008f, -0.43336606f, 0.06841542f, -0.07472820f, 0.09450814f,
    -0.06421278f, -0.26113296f, -0.26409999f, -0.04830961f, 0.50679958f, 0.25616577f, 0.00752912f, 0.00311843f,
    -0.44804502f, 0.08471073f, -0.16821267f, -0.06818474f, -0.10666755f, 0.22409691f, -0.05183346f, -0.05371123f,
    0.04243445f, -0.14204027f, -2.21967077f, -0.13519025f, 0.07665671f, 0.06701546f, 0.09888543f, -0.09955683f,
    -0.08307084f, -1.87452042f, -0.04974749f, 0.03488194f, -0.11628071f, 0.21614450f, -0.15941173f, 0.13084309f,
    -0.12649658f, 0.16682847f, -0.33682388f, -0.19522630f, 0.02702775f, -0.25104776f, 0.05266922f, 0.05021766f,
    0.19677639f, -0.02038338f, 0.01031121f, -0.09074602f, -0.14012410f, 0.18394901f, -0.02846559f, 0.02398724f,
    -0.00347555f, -0.27574959f, -0.23887831f, -0.05899848f, -0.35726705f, 0.20126899f, -0.40627021f, 0.06890994f,
    0.03543000f, 0.29773146f, 0.48592371f, 0.01806333f, -0.74439061f, 0.02640039f, -0.14676152f, -0.02090761f,
    0.08168744f, -0.78661323f, -0.03358259f, -0.01148666f, -0.33543769f, -0.05681482f, 0.21570162f, -0.72087061f,
    0.23197120f, 0.14670099f, 0.02362547f, -0.04287335f, -0.13887219f, 0.11244241f, 1.09596252f, -0.10053794f,
    0.26771894f, -0.76942366f, -0.21733494f, 0.05344709f, -0.18247978f, 0.14974448f, -0.68393928f, -0.42020711f,
    -0.06607527f, 0.27174821f, 0.82920676f, -0.09448199f, -0.22294077f, 0.29680473f, -0.17025664f, -0.60887390f,
    0.12146767f, -0.00715772f, 0.22893715f, 0.34252670f, -0.26206154f, 0.17702307f, -0.24682358f, 0.12911758f,
    0.06559290f, 0.18934339f, -0.07143100f, 0.01148305f, -0.20682169f, 0.03544570f, 0.06582559f, 0.08210913f,
    -0.18097076f, 0.09219816f, 0.00419018f, 0.35397118f, -0.20685941f, 0.05909597f, -0.51578081f, 0.01255052f,
    -0.03065008f, -0.20563604f, -0.30325723f, -0.18380420f, -0.13418883f, -0.03623713f, -0.07735424f, 0.04427019f,
    -0.46655539f, 0.00580748f, 0.02732026f, -0.12293209f, -0.33382449f, -0.51325113f, -0.33536112f, -0.19577049f,
    0.12912180f, -0.45859712f, -0.03601163f, -0.04738306f, 0.05757272f, 0.02416352f, 0.18640931f, 0.05441165f,
    -0.04723734f, -0.08508657f, -0.04061660f, -0.05652120f, 0.09274898f, -0.41673008f, 0.28195333f, -0.04100827f,
    -0.03224618f, -0.15125592f, 0.18598814f, 0.04184746f, -0.18930808f, -0.07523305f, -0.02277276f, -0.13860945f,
    -0.05299668f, -0.24905385f, 0.07030080f, 0.03953694f, 0.03447313f, -0.11888437f, -0.10031627f, -0.50237495f,
    -0.46662146f, 0.00421685f, -0.07508345f, -0.20509720f, -0.21682252f, -0.35089326f, 0.03724027f, -0.03636560f,
    -0.27234784f, -0.08460033f, -0.11256267f, -0.11555828f, -0.18514231f, 0.01716588f, 0.26684448f, 0.04137678f,
    -0.10775650f, -0.03530651f, -0.43611941f, 0.07301496f, -0.46925294f, -0.01718713f, -0.01275792f, 0.06102505f,
    -0.06724254f, -0.85498351f, 0.18576033f, 0.14959335f, -0.63104331f, -0.25862744f, -0.00076336f, -1.92285311f,
    0.43590683f, -0.19170496f, 0.11751486f, -0.04783632f, -0.18659475f, -0.12528311f, 2.61089921f, -0.18245584f,
    -1.02302885f, -0.92972583f, 0.21545447f, -0.26887318f, -0.58185029f, -0.01538834f, -0.74137962f, -0.97154331f,
    -0.32034081f, -0.07654800f, 1.18486786f, -0.04228665f, -0.78001696f, 0.55043173f, -0.59227699f, -0.54381514f,
    0.02833097f, -0.14020638f, 0.35996795f, 0.59631717f, -0.17202276f, 0.07860322f, -0.82573169f, -0.01512587f,
    -0.24624276f, -0.12777081f, -0.25464791f, -0.50783038f, -0.31000277f, -0.11179695f, 0.30232611f, -0.08646356f,
    -0.24665381f, -0.12134061f, -0.21845980f, 0.80253184f, -0.47984675f, -0.39267597f, -1.20860839f, 0.01561459f,
    -0.15200564f, -0.23689564f, -0.51703858f, -0.12419220f, -0.17574747f, 0.22409739f, -0.38038108f, 0.18269862f,
    -0.14457658f, -1.03372848f, 0.24966453f, 0.06888720f, -0.55718660f, -0.05750801f, -0.06565052f, -1.72350144f,
    0.28412592f, -0.02109409f, 0.06443064f, 0.06791375f, -0.10300419f, -0.17038339f, 2.24481320f, -0.02198181f,
    -0.78011209f, -0.89586955f, 0.29043806f, -0.37111273f, -0.49421272f, 0.07937161f, -0.66470075f, -0.98614556f,
    -0.19973451f, -0.00901483f, 1.05254519f, -0.15200807f, -0.81485069f, 0.48361152f, -0.60501313f, -0.54673636f,
    -0.12514846f, -0.03903817f, 0.29959193f, 0.62240314f, -0.17037602f, -0.02785970f, -0.60400766f, 0.04400251f,
    -0.24258560f, -0.06524384f, -0.12794548f, -0.33678636f, -0.23976311f, -0.19976597f, 0.49993515f, -0.15649748f,
    -0.35253319f, -0.25273958f, -0.24515398f, 0.60385674f, -0.26550132f, -0.44646952f, -1.04625869f, -0.00727221f,
    -0.15718763f, -0.17633501f, -0.23255034f, -0.15163136f, -0.06873976f, 0.09721618f, -0.52181977f, 0.02389729f,
    -0.08112074f, -0.25947627f, -0.20649944f, -0.16613053f, 0.11231237f, 0.10611972f, -0.28870946f, 0.46736264f,
    0.25005835f, -0.03301623f, -0.16141608f, -0.28159744f, -0.27179331f, -0.02422046f, -0.28264216f, -0.07517058f,
    -0.07979236f, -0.18860434f, -0.44653326f, -0.13697705f, -0.06112331f, -0.51887733f, 1.56433475f, 0.04953479f,
    -0.23847370f, -0.20120740f, -0.04993878f, -0.14360908f, 0.05441044f, 0.20302689f, -0.11168315f, 0.38551569f,
    -0.29745534f, -0.10146452f, -0.14286523f, -0.00127183f, -0.07549936f, -0.35913476f, -0.20893736f, -0.02678399f,
    -0.15528077f, -0.13898580f, -0.17826535f, 0.77334952f, 0.03955897f, 0.02782216f, -0.02533278f, -0.20378070f,
    -0.04650087f, -0.09513934f, -0.10538337f, -0.27343556f, -0.26097706f, -0.22270992f, -1.45110416f, -0.14712578f,
    -0.13025270f, -0.22085461f, -0.12975594f, -0.00728182f, -0.40496317f, -0.02494952f, 0.01575978f, -0.19808875f,
    0.21225651f, -0.10098247f, 0.15908973f, 0.02609244f, -0.08091014f, 0.03198823f, 0.18281706f, -0.14165360f,
    0.24078995f, 0.20856170f, -0.09566906f, 0.00120940f, -0.01896164f, 0.07284802f, 0.22002593f, 0.03602795f,
    0.11105394f, -0.48149750f, -0.20673890f, 0.00045526f, -0.04560155f, 0.16676742f, 0.03852099f, 0.02417739f,
    0.11316204f, -0.94859958f, -0.34845716f, 0.03478866f, -0.12591130f, -0.04343199f, -0.15415604f, -0.00181542f,
    -0.06161522f, 0.07481615f, -0.14489235f, -0.11753724f, -0.13394684f, 0.09012658f, 0.18342321f, 0.04754133f,
    0.19873200f, 0.09736692f, -0.05343195f, 0.06706276f, 0.11845932f, 0.17349498f, -0.09460747f, 0.05782218f,
    0.04617779f, -0.10133553f, -0.12618013f, -0.19613829f, 0.09361124f, -0.01060267f, 0.14362992f, -0.14786580f,
    -0.01012123f, -0.14168495f, -0.00943839f, -0.10208147f, -0.05351330f, -0.09929581f, -0.10236645f, 0.06576703f,
    -0.61903143f, -0.04368477f, 0.14782006f, -0.02831723f, -0.37983957f, -0.56460643f, -0.46081316f, 0.00197412f,
    0.09156360f, -0.43493930f, 0.11140354f, 0.18272352f, 0.07986922f, -0.00881836f, -0.03841553f, 0.07184005f,
    -0.03140934f, -0.05813800f, 0.00911117f, 0.05034067f, 0.19455567f, -0.46477664f, 0.37324727f, 0.18536304f,
    0.00956517f, -0.07027183f, 0.38812473f, 0.07030579f, 0.10015235f, 0.15531047f, -0.02561905f, -0.31270301f,
    0.12175595f, -0.59599549f, 0.23302114f, 0.32416672f, 0.32516029f, 0.03859525f, -0.23961864f, -0.46720788f,
    -0.56453669f, -0.02260791f, 0.11692896f, -0.31067210f, -0.50496638f, -0.49779052f, 0.17254600f, 0.18383303f,
    -0.48305050f, 0.00641445f, 0.11581337f, 0.01312534f, -0.49860227f, -0.04280620f, 0.15619430f, 0.13022183f,
    0.23659348f, 0.07748869f, -0.54940385f, 0.22497217f, -0.50943714f, -0.06890959f, -0.02478064f, 0.03784420f,
    -0.56069314f, -0.15200654f, 0.05840699f, -0.01301290f, -0.27149814f, -0.61520123f, -0.43171787f, -0.16141368f,
    0.13041252f, -0.37828639f, 0.13747729f, 0.05918396f, 0.15638955f, 0.08626629f, -0.01980689f, 0.03170732f,
    -0.12442153f, 0.03505110f, -0.09238888f, 0.04217978f, -0.03272599f, -0.38212419f, 0.33558407f, 0.08864008f,
    -0.05561633f, -0.23522496f, 0.42368487f, 0.00880437f, -0.00376677f, 0.10238992f, -0.06843713f, -0.16485494f,
    0.09412986f, -0.41444126f, 0.01805954f, 0.15356532f, 0.02725139f, 0.06905032f, -0.34913984f, -0.39975187f,
    -0.39806414f, 0.07645871f, 0.06911220f, -0.19258459f, -0.23760846f, -0.35975018f, 0.09673513f, 0.09143513f,
    -0.41689041f, 0.00832097f, 0.03886146f, 0.04841895f, -0.31666321f, -0.00025854f, 0.27164271f, 0.13910960f,
    0.18286538f, -0.03491198f, -0.34056908f, 0.04250943f, -0.39995900f, 0.00001450f, 0.04871722f, 0.02692421f,
    0.00445330f, 0.05333067f, 0.02007853f, 0.00730210f, -0.07730921f, 0.05925967f, 0.02734661f, 0.09302494f,
    0.38962257f, 0.17278814f, -0.00780240f, 0.11383271f, 0.08530351f, 0.03372164f, 0.39739829f, 0.03016917f,
    0.14017493f, -1.11487329f, 0.24721108f, -0.06786206f, -0.01139159f, 0.13983484f, 0.52599502f, -0.00308156f,
    -0.06786942f, -0.37861976f, -0.52373236f, 0.07886407f, -0.02101179f, 0.13590765f, -0.02918771f, -0.59928989f,
    0.00728836f, 0.04270019f, -0.00738452f, -0.27075702f, -0.08421147f, 0.07783470f, 0.11906395f, 0.22265260f,
    0.19919989f, 0.10111956f, -0.10876756f, 0.27042183f, 0.02545957f, 0.10389650f, 0.02904602f, -0.07229865f,
    0.10134379f, -0.07008123f, -0.09510588f, -0.02655946f, 0.08183719f, 0.15719794f, 0.12114901f, -0.06033843f,
    -0.01771505f, -0.02095702f, -0.00508253f, -0.09575988f, 0.07044721f, 0.04247037f, 0.14171180f, 0.03917710f,
    0.08702204f, 0.19012788f, -0.28826445f, 0.03555114f, -0.05992818f, 0.10935166f, -0.02480466f, 0.40219256f,
    -0.47288811f, 0.14910543f, -0.20820688f, -0.20776439f, -0.09608786f, 0.26804811f, 0.28028014f, -0.19984935f,
    0.31747636f, -0.44776654f, -2.28679299f, -0.26074281f, 0.03922352f, 0.13722745f, -0.09336185f, -0.03536003f,
    0.00849177f, -2.52393079f, 0.03911327f, -0.21266203f, -0.00895605f, 0.13873073f, -0.13358720f, -0.04921030f,
    -0.10445778f, 0.05165796f, -0.05444096f, -0.01152675f, -0.03113840f, -0.26847351f, -0.15746783f, 0.03474912f,
    0.12141286f, 0.10966107f, -0.17753142f, -0.66203815f, -0.02061813f, 0.19373773f, -0.00109207f, -0.15880784f,
    0.04910205f, -0.25904527f, -0.21789375f, 0.06823563f, -0.49655280f, -0.05857299f, -0.23861060f, -0.10142531f,
    -0.07577333f, 0.00096603f, 0.26018843f, -0.03980964f, -0.76030934f, 0.05958775f, -0.04002488f, -0.12954620f,
    0.29937890f, 0.33187863f, 0.11632676f, -0.06163557f, 0.05061207f, 0.29297581f, 0.13474917f, 0.03346270f,
    0.34670910f, 0.32966715f, 0.09012403f, -0.09859836f, 0.00228597f, 0.17773379f, 0.46872282f, -0.12117319f,
    0.11901122f, -1.01754677f, 0.15649873f, -0.12677826f, -0.01456646f, 0.14316636f, 0.36839142f, -0.06147387f,
    0.00998325f, -0.50696921f, -0.52634913f, 0.11393930f, 0.13449967f, 0.05103582f, -0.13170974f, -0.45109111f,
    0.11409400f, 0.18923175f, -0.09156081f, -0.28435186f, -0.09091826f, 0.05201638f, 0.04029654f, 0.29291773f,
    0.14380996f, 0.10907251f, 0.04725150f, 0.15778036f, 0.10347832f, 0.30814993f, 0.00168802f, -0.07777666f,
    0.14443730f, -0.06114610f, -0.05367035f, -0.00561496f, 0.19557771f, -0.06173256f, 0.21494962f, -0.04170866f,
    -0.04676628f, 0.15440324f, 0.26482877f, -0.13145389f, 0.27984795f, 0.09625769f, 0.02364575f, 0.07464798f,
    -0.56974310f, 0.10754505f, -0.00059405f, -0.02866616f, -0.38575563f, -0.48594800f, -0.60478199f, -0.06653372f,
    0.13763484f, -0.63657153f, 0.10876652f, -0.04566112f, 0.10125797f, 0.02157437f, -0.12407704f, 0.07379206f,
    -0.14856184f, -0.11800902f, -0.04638695f, 0.03110325f, 0.13054748f, -0.40805787f, 0.17129533f, 0.14518122f,
    -0.02922386f, -0.05421497f, 0.45484114f, -0.01168450f, 0.04993081f, 0.15992318f, -0.04598244f, -0.31315324f,
    0.07671325f, -0.55192941f, 0.15746568f, 0.29147062f, 0.20347060f, 0.11409986f, -0.38310459f, -0.66308457f,
    -0.47857729f, -0.07329164f, 0.11348447f, -0.39279446f, -0.43539527f, -0.64740956f, 0.01669132f, 0.08842861f,
    -0.40990129f, 0.00454358f, 0.20429738f, 0.12175386f, -0.32554159f, 0.04620283f, 0.17492613f, 0.03673917f,
    0.25746995f, -0.00554606f, -0.44118011f, 0.25992697f, -0.56590885f, -0.07870256f, 0.00838982f, 0.10546628f,
    -0.39569512f, -0.00363185f, -0.06188356f, -0.07546134f, -0.41480595f, -0.50661451f, -0.59840232f, -0.19483259f,
    0.13171948f, -0.60358167f, -0.11114492f, -0.02689682f, 0.08840182f, -0.13935603f, 0.08886457f, -0.01887920f,
    -0.05470810f, -0.04374121f, -0.00896196f, 0.08741566f, 0.13641737f, -0.59054130f, 0.23911124f, 0.01193724f,
    -0.09962067f, -0.04971420f, 0.29205209f, 0.01168033f, -0.11096188f, 0.01055116f, -0.04664280f, -0.15881550f,
    0.09362814f, -0.46892858f, 0.17993540f, 0.10744740f, 0.24933656f, -0.06600104f, -0.28254423f, -0.55699056f,
    -0.46159220f, 0.08133721f, -0.06117122f, -0.36138070f, -0.38712129f, -0.38633317f, 0.13445081f, -0.05391008f,
    -0.32564962f, -0.02351363f, 0.15763572f, 0.12301191f, -0.20865589f, -0.01237227f, 0.12266418f, 0.05156498f,
    -0.00078043f, -0.02394184f, -0.38426706f, 0.24117187f, -0.38656819f, 0.10006756f, 0.03675421f, -0.09034370f,
    0.22171021f, 0.04277454f, 0.03769835f, -0.01513441f, 0.04306212f, 0.18675521f, 0.00973419f, 0.05293373f,
    0.57360262f, 0.03349926f, -0.11470644f, 0.02860436f, 0.00513728f, 0.01937719f, 0.37216443f, 0.00687802f,
    0.04728034f, -1.16346669f, 0.43068352f, -0.04530286f, -0.00427666f, 0.25019592f, 0.56367201f, -0.00235587f,
    0.00458971f, -0.37108424f, -0.57713288f, -0.04887713f, 0.06181597f, 0.02297486f, -0.12877889f, -0.55685478f,
    0.06803954f, 0.09920437f, -0.15458255f, -0.23312777f, -0.08936080f, 0.26421338f, 0.06628770f, 0.25661010f,
    0.18374920f, 0.00166644f, 0.01652638f, 0.14074451f, 0.02094346f, 0.05300738f, 0.08676208f, -0.08094788f,
    0.04604440f, -0.02749643f, 0.07865411f, 0.08838558f, 0.03511519f, 0.18498726f, 0.23947097f, -0.01991659f,
    -0.01986403f, 0.02323893f, 0.20789184f, -0.02909373f, 0.15223590f, -0.06408275f, 0.01409060f, 0.13005680f,
    -0.24956207f, -0.14115167f, 0.06349741f, 0.10972989f, -0.07675108f, -0.33609962f, -0.42972979f, 0.00265303f,
    0.04048662f, -0.31954688f, -0.06105550f, -0.06699245f, -0.11737893f, 0.00124433f, 0.06987608f, -0.04906177f,
    -0.14212433f, -0.20737204f, 0.02055890f, -0.01315338f, 0.05267117f, -0.34773630f, 0.16290246f, -0.12599468f,
    0.00470555f, -0.40550673f, 0.18161996f, -0.07463930f, -0.04573179f, -0.01268252f, -0.05764629f, -0.18098255f,
    -0.11849964f, -0.28662768f, 0.02050422f, -0.12953505f, 0.06107127f, -0.05639960f, -0.08956426f, -0.29623064f,
    -0.36170745f, -0.00466891f, 0.00568758f, -0.18444636f, -0.10671679f, -0.25258276f, -0.03649706f, -0.03973653f,
    -0.30889478f, 0.04293040f, -0.02346675f, -0.14036721f, -0.23880336f, -0.15143670f, 0.08495654f, -0.10545424f,
    -0.11607978f, 0.07042270f, -0.22127046f, 0.11198857f, -0.40528303f, 0.00891057f, -0.12265680f, -0.03935541f,
    -0.61892414f, -0.08399816f, 0.06542516f, 0.04797051f, -0.42686293f, -0.66856724f, -0.48214519f, 0.01105336f,
    -0.02243829f, -0.52187192f, -0.02564112f, 0.02462981f, 0.24548282f, 0.00060497f, -0.11242101f, 0.19570063f,
    -0.14246818f, 0.06704115f, -0.03757194f, 0.00956468f, 0.01195476f, -0.55165774f, 0.17647344f, 0.18350251f,
    0.04685866f, -0.26287806f, 0.52470076f, 0.10333838f, -0.05342666f, 0.14681670f, 0.10443749f, -0.29882780f,
    0.08989901f, -0.60399532f, 0.17473315f, 0.28807488f, 0.21374243f, 0.01016383f, -0.17932363f, -0.56921011f,
    -0.41869560f, -0.11854926f, -0.06028729f, -0.30305701f, -0.46070823f, -0.66646963f, 0.09649999f, 0.16045599f,
    -0.59457409f, 0.10664857f, 0.07813841f, 0.19562209f, -0.45227471f, -0.08251895f, 0.21604683f, 0.04460147f,
    0.23219451f, 0.03516500f, -0.59471285f, 0.30941483f, -0.50804842f, -0.00950146f, -0.06690541f, -0.01121168f,
    -0.31948438f, -1.12373769f, 0.03464862f, -0.12170417f, -0.22292468f, -0.12871163f, -0.30549327f, -0.47714972f,
    -0.51015031f, -0.10490074f, 0.06053001f, 0.02401354f, 0.12375338f, -0.01681322f, 0.65580434f, 0.14108092f,
    0.07424565f, -1.81431806f, -0.85171801f, -0.15278916f, -0.23471698f, -0.07869057f, -0.06556398f, -0.34165344f,
    0.00006448f, -1.76977420f, 0.48533466f, -0.01876278f, -0.14914669f, -0.16552253f, -0.31738913f, -0.28696197f,
    -0.05919138f, -0.09755182f, 0.01895337f, 0.13658533f, -0.09844451f, -0.37424201f, -0.24787399f, -0.04198360f,
    -0.12319081f, 0.05833070f, 0.03508003f, -0.37974229f, -0.11504871f, -0.12626846f, 0.12280885f, -0.12550859f,
    -0.10165515f, -0.19143468f, -0.17853639f, -0.18424724f, -0.30410436f, -0.00666864f, -0.46139908f, -0.01905780f,
    0.04986057f, 0.12543115f, -0.01745746f, -0.15889181f, -0.27028877f, -0.00056087f, -0.15722832f, 0.00930348f,
    -0.61103821f, -0.08879055f, -0.00108366f, -0.06679253f, -0.25392500f, -0.51432484f, -0.63997799f, -0.19917496f,
    0.08104526f, -0.47336733f, 0.01189118f, 0.12264434f, 0.19368070f, 0.08032212f, 0.03093128f, 0.21953364f,
    -0.09460881f, 0.03133960f, 0.01872648f, 0.07018183f, -0.01699706f, -0.63176143f, 0.31634378f, -0.02335256f,
    0.03872070f, -0.24702595f, 0.50150329f, -0.01663244f, 0.06696707f, -0.02345939f, 0.01704015f, -0.28635067f,
    -0.07418118f, -0.45231897f, 0.10545404f, 0.29345429f, 0.23109248f, 0.13634941f, -0.24232474f, -0.48516750f,
    -0.60931152f, 0.10318366f, -0.03498391f, -0.32454509f, -0.39811751f, -0.45266333f, 0.02159168f, -0.04193380f,
    -0.56401277f, 0.08384164f, 0.11281700f, -0.02881904f, -0.47542033f, 0.08761469f, 0.22121516f, -0.00342296f,
    0.11802781f, 0.03468088f, -0.53756708f, 0.24512389f, -0.45331737f, 0.11743660f, -0.00126324f, -0.06458465f,
    -0.24141422f, -0.15934360f, 0.05553865f, -0.06455948f, -0.22852388f, -0.30105376f, -0.22155996f, -0.17898536f,
    0.05544145f, -0.28710923f, 0.07998887f, -0.17358734f, 0.09826980f, -0.09241946f, 0.03025397f, -0.02277317f,
    -0.08525115f, -0.13642971f, -0.08642749f, -0.07129396f, -0.02421584f, -0.23073566f, 0.27189049f, -0.12562872f,
    0.06941596f, -0.15227091f, 0.18892220f, -0.00896239f, -0.04800695f, -0.04972720f, -0.05470062f, -0.06248875f,
    -0.01861172f, -0.21421684f, 0.09143331f, 0.05189913f, 0.07129204f, 0.08691709f, -0.20007253f, -0.41517982f,
    -0.24066348f, -0.04225266f, -0.11814097f, -0.16872340f, -0.23350517f, -0.39735162f, 0.01289052f, 0.05213800f,
    -0.36380351f, -0.10062203f, 0.10299458f, -0.02894706f, -0.22603051f, -0.04739999f, 0.09804576f, -0.09856576f,
    0.02570546f, -0.14511336f, -0.14921358f, -0.03816817f, -0.33611140f, -0.09670618f, -0.10090896f, -0.14761542f,
    -0.28554836f, 0.08378395f, -0.36530757f, -0.20517634f, -0.00942525f, 0.02075978f, -0.10374437f, 0.19479001f,
    -1.55935764f, -0.08728074f, 0.07120571f, -0.10909983f, -0.06337408f, -0.03857483f, 0.08342201f, -0.14156237f,
    0.04620950f, 0.83768487f, -2.48655581f, -0.05959453f, -0.13664129f, -0.01849753f, 0.05371604f, -0.03458332f,
    0.10065506f, -3.25300336f, -0.26102802f, -0.06911875f, -0.11379356f, -0.35298818f, -0.16024938f, 0.63531494f,
    -0.12793602f, -0.06857524f, -0.15647501f, -0.22047913f, -0.15381671f, -0.81058866f, -0.54418761f, 0.10080654f,
    0.05173345f, -0.07310034f, -0.08586469f, -0.63360530f, -0.48900008f, 0.04955321f, 0.04399870f, -0.20220830f,
    0.04890928f, -0.12061518f, -0.23697139f, -0.60680944f, -0.07015410f, -0.01347929f, -0.46817964f, -0.18191296f,
    -0.09349005f, -0.06208418f, -0.02859871f, 0.00973483f, -2.73002195f, -0.16051564f, 0.03605671f, -0.05488774f,
    0.06063468f, -1.16884816f, -0.26283619f, -0.06723756f, 0.19716343f, 0.19618586f, -0.12212922f, -0.21748099f,
    -0.15201795f, 0.10187802f, -0.02577050f, 0.02296379f, -0.05494727f, 0.15199234f, -0.77590930f, -0.05706757f,
    0.24409777f, -0.42107007f, -1.75799131f, -0.09169029f, -0.02915247f, 0.12163210f, 0.12108669f, -0.11515116f,
    -0.04690399f, -1.30278766f, 0.14057007f, -0.02584904f, -0.07480578f, 0.24572708f, -0.31271192f, -1.04694593f,
    -0.02912441f, 0.21406911f, -0.09847208f, -0.13579985f, -0.16623153f, -0.28222641f, -0.12319688f, 0.18814279f,
    0.24084480f, 0.10739921f, -0.00099160f, -0.79511285f, 0.16969104f, 0.00421997f, 0.00557616f, 0.01095784f,
    0.03719391f, -0.17728157f, -0.12976524f, 0.12436733f, -0.20470205f, 0.17922847f, -0.18625259f, -0.07734767f,
    -0.03128351f, 0.23657297f, 0.25514442f, -0.14836797f, 0.02019092f, 0.14544661f, -0.06596034f, 0.18653844f,
    0.03803255f, 0.20039314f, -0.01223881f, 0.01920787f, -0.21424121f, -0.08106759f, 0.19485828f, -1.01935971f,
    -0.47465262f, -0.08022059f, -0.00526488f, -0.13385992f, -0.16861333f, -0.08229723f, 2.00616598f, -0.16474956f,
    -0.11915600f, -1.06785274f, -2.16630769f, -0.22955571f, -0.49406973f, 0.14051606f, -0.85099208f, -0.55185133f,
    -0.21389253f, -0.18534657f, 0.65844733f, -0.20478323f, -0.45919982f, -0.08669284f, -0.47081560f, 0.35509101f,
    0.10023047f, -0.01069376f, 0.17027304f, 0.31722862f, -0.40422788f, -0.02280855f, -0.49909830f, -0.03944710f,
    0.03912890f, -0.17266715f, -0.19136907f, 0.04118809f, 0.04936937f, -0.03240434f, 0.14709063f, -0.24827299f,
    0.02908054f, -0.23682079f, -0.38803315f, 0.15550828f, 0.06582262f, -0.28721344f, -1.01073027f, -0.10924981f,
    -0.20096987f, -0.07063406f, -0.15195963f, -0.36102232f, -0.35714322f, 0.02605112f, -0.46448782f, -0.00204492f,
    -0.12093978f, 1.21416056f, -0.03810213f, -0.04283027f, -0.28022599f, 0.03268846f, -0.19058931f, 0.20233369f,
    0.02231006f, 0.00494857f, -0.00953828f, -0.16449368f, -0.12863387f, -0.13853163f, 0.82834107f, -0.22627306f,
    0.33777964f, -2.85342479f, 0.28576532f, -0.06386536f, -0.10715202f, -0.03259359f, -1.40508711f, 0.12645292f,
    -0.07930831f, -2.03157473f, -0.21407084f, -0.11284644f, -0.15671177f, -0.42013603f, 0.21899833f, 0.36935797f,
    0.02492713f, -0.14869611f, -0.06463590f, -0.08127204f, -0.14886026f, -0.09151235f, -0.32692704f, 0.06857121f,
    0.10468885f, -0.16501611f, -0.15420428f, -0.48756650f, -0.41603407f, -0.08720893f, -0.22132598f, -0.25059724f,
    0.07199773f, -0.13356064f, -0.03810641f, -0.68729359f, -0.13756689f, -0.05867851f, -0.55554062f, 0.02526763f,
    -0.24048240f, -0.10581642f, -0.35394520f, -0.13851270f, -0.35077900f, 0.02642960f, 0.09956514f, -0.04700490f,
    0.23145045f, -0.01287823f, 0.04997442f, 0.22929709f, 0.99334550f, 0.59834743f, 0.27316791f, 0.19961698f,
    -0.07573717f, 0.32986474f, 0.20709816f, 0.09201632f, 0.00661527f, 0.21792991f, 1.66309965f, -0.03359060f,
    0.16250880f, -0.41706142f, 1.24732018f, 0.23472063f, 0.10536008f, 0.22706251f, 1.06812692f, 0.06232792f,
    0.20882954f, 0.02051687f, -0.65118605f, 0.09954073f, 0.19252759f, 0.19701304f, 0.24249700f, 0.10349820f,
    0.14230406f, 0.44347927f, -0.08397412f, -0.12749080f, -0.03982621f, 0.37169749f, 0.67202133f, 0.62060481f,
    0.43717912f, 0.34464046f, -0.01811172f, 0.86532217f, 0.32561114f, 0.53745049f, -0.05952506f, 0.13845509f,
    0.48543561f, 0.23998755f, 0.05073763f, 0.37874573f, 0.35348332f, 0.13866004f, 0.44637462f, 0.15145844f,
    -0.12762620f, 0.08271172f, 0.39842919f, -0.09820981f, -0.01156556f, -0.00697463f, 0.18594958f, 0.14495181f,
    -0.66218644f, -0.04049248f, 0.09092604f, 0.11791917f, -0.47367117f, -0.65998644f, -0.63833350f, -0.15353000f,
    0.03321952f, -0.52647531f, 0.08471455f, 0.13175513f, 0.27256083f, -0.05160531f, -0.13500072f, 0.12475843f,
    0.03092147f, -0.04529677f, -0.02832432f, 0.04826698f, 0.09728745f, -0.60638732f, 0.14526592f, 0.01103168f,
    -0.00474446f, -0.21843126f, 0.49790016f, 0.17943570f, -0.07717730f, 0.13902219f, 0.20643839f, -0.27958882f,
    -0.10134678f, -0.54234260f, 0.08055136f, 0.32868960f, 0.08978802f, -0.01525115f, -0.39140117f, -0.62066442f,
    -0.50666052f, 0.12667614f, 0.17429292f, -0.20116885f, -0.44240671f, -0.47628278f, 0.22929837f, 0.06463838f,
    -0.44656196f, 0.12204346f, 0.24850503f, 0.02085495f, -0.47612071f, 0.13227822f, 0.13529760f, -0.04719061f,
    0.24387330f, 0.04263557f, -0.55682164f, 0.09639414f, -0.39954397f, 0.10463145f, 0.08040024f, 0.10837267f,
    -0.06849619f, 0.07273401f, 0.35533711f, -0.03524957f, -0.50787538f, 0.00489441f, -0.08305877f, -1.12554538f,
    0.45222265f, 0.00104445f, 0.14410551f, -0.00550525f, -0.14361838f, -0.50188327f, 2.28399396f, -0.22344470f,
    -0.45618048f, -1.06454492f, -2.83631897f, -0.16679028f, -0.59123111f, -0.14150259f, -0.72490036f, -0.84204125f,
    -0.21332404f, -1.87062323f, 0.69091088f, 0.06704810f, -0.89448124f, -0.06211880f, -0.27848843f, -0.06821685f,
    0.32267195f, -0.25462794f, 0.47100079f, 0.47217250f, -0.28391975f, 0.57735175f, -0.39573440f, -0.04493799f,
    -0.07547683f, -0.25066146f, -0.26709521f, -0.63161528f, -0.09092133f, -0.20796448f, 0.19039901f, 0.00332891f,
    -0.24518934f, -0.00032673f, -0.14894350f, -1.99608350f, -0.55166990f, -0.67240727f, -0.59629923f, 0.04402866f,
    -0.02130906f, -0.40387329f, -0.31942350f, -0.11132443f, 0.56478423f, 0.11100531f, -0.27771306f, 0.24941006f,
    -0.17311925f, -1.01084638f, 0.00472500f, 0.17292173f, -0.48877135f, -0.15933076f, 0.02534900f, -1.26657128f,
    0.49045980f, -0.16451623f, -0.03273532f, 0.03175320f, -0.13796762f, 0.04640411f, 1.98225033f, -0.04244513f,
    -0.32036129f, -0.82106441f, 0.07349734f, -0.11406256f, -0.41586703f, 0.21324800f, -0.70058000f, -0.62893271f,
    -0.21233170f, 0.04162003f, 1.05855298f, -0.05871812f, -0.45591426f, 0.35100242f, -0.28663754f, -0.63711876f,
    0.13865596f, -0.19053081f, 0.23749633f, 0.41682988f, -0.36916554f, 0.16650660f, -0.49016583f, -0.06734415f,
    -0.04629672f, 0.18674278f, -0.24866974f, -0.32636851f, -0.26502517f, -0.08689410f, 0.40250233f, -0.13425682f,
    -0.23025930f, -0.04055059f, -0.22395958f, 0.72080952f, -0.38749155f, -0.27804264f, -0.86283255f, 0.02050677f,
    -0.18783113f, -0.27948812f, -0.27304974f, -0.10779178f, -0.10246401f, 0.15680900f, -0.22605285f, 0.10307891f,
    -0.03816952f, 0.00324615f, -0.11148855f, -0.15014011f, -1.39689636f, 0.34152529f, 0.20245363f, 0.35135570f,
    0.28016606f, 0.24336448f, -0.14910215f, -0.61431068f, -0.60075092f, -0.58041865f, -2.33679223f, -0.54439580f,
    -0.23088938f, 0.12067854f, -0.71062183f, -0.32623953f, 0.12665002f, 0.18655662f, 0.78287071f, 0.17752412f,
    -0.02855250f, 0.53767806f, 0.12993188f, -0.22791395f, -0.18281846f, -0.39119482f, 0.16545424f, -1.26671040f,
    0.26174185f, 0.29789376f, 0.01413872f, -0.19717984f, -0.37286684f, -0.45194608f, -1.90214825f, 0.55714637f,
    0.31948110f, -0.59804511f, -0.95662069f, -2.33870888f, -0.99851024f, 0.37071341f, -0.25493279f, -0.36900708f,
    0.18736234f, -0.71327764f, -0.50601530f, -1.29037952f, -0.16650052f, -0.30288604f, -5.38068151f, -0.19950247f,
    -0.37239841f, -0.06840967f, -0.23643027f, -0.39308408f, -3.12854767f, -0.26457769f, -0.50214309f, -0.28726307f,
    -0.46381402f, 0.06543392f, -0.01175055f, 0.14023477f, -0.40422902f, -0.60570925f, -0.41805246f, 0.03863825f,
    0.06407705f, -0.59472394f, -0.01233483f, 0.12040965f, 0.27333990f, -0.07610040f, -0.12070141f, 0.22414483f,
    -0.09929655f, -0.00259460f, 0.08847959f, 0.11985747f, 0.01761981f, -0.56604987f, 0.22060837f, 0.11651500f,
    0.09027465f, -0.05224389f, 0.38158780f, 0.00583001f, -0.00139351f, 0.12140845f, 0.13735689f, -0.23517260f,
    0.07387804f, -0.56266344f, 0.10764667f, 0.09445038f, 0.18418695f, 0.06806429f, -0.34682333f, -0.48491850f,
    -0.53645086f, -0.00854782f, 0.13311411f, -0.38012430f, -0.51122236f, -0.66547328f, 0.08264327f, 0.18772049f,
    -0.58960056f, 0.00303336f, 0.16514423f, 0.07451060f, -0.26585412f, -0.03801908f, 0.14814562f, 0.14176477f,
    0.05137333f, -0.03182432f, -0.40665993f, 0.24928135f, -0.55857658f, 0.11492376f, -0.08398909f, 0.02270982f,
    0.18849786f, -0.67264515f, -0.16353272f, -0.03612865f, -0.07872572f, 0.04941497f, 0.06120021f, -1.06586349f,
    -0.19137558f, -0.00281790f, 0.01099400f, -0.24608955f, -0.18162672f, -0.22334656f, 1.14953017f, -0.20810802f,
    -0.48043564f, -6.94400167f, -1.01162302f, -0.03283574f, -0.20761299f, -0.05641811f, 0.23852943f, -0.18205249f,
    0.16254029f, -3.49959445f, 0.29911852f, 0.02419395f, -0.33046585f, -0.49153405f, -0.00548163f, 0.73255342f,
    0.06240010f, -0.28781950f, 0.09460706f, 0.00354625f, -0.25475904f, -0.06443337f, -0.36664814f, 0.04578067f,
    -0.08559156f, -0.20898233f, -0.36085573f, -0.84885287f, -0.73849577f, 0.11389159f, 0.11322004f, -0.14121847f,
    0.24399404f, -0.20210806f, -0.19760293f, -1.04641092f, -0.06981220f, -0.18789549f, -0.57977289f, -0.08326774f,
    -0.29384148f, -0.12681481f, -0.36626434f, -0.32524750f, -0.40380749f, -0.06479961f, -0.14119291f, -0.05941795f
};
float biases3[] = {
    0.43411481f, -0.15035006f, -0.24312893f, 0.52278668f, -0.10836794f, -0.15163229f, 0.03710524f, -0.03745767f,
    0.61874676f, 0.39694300f, 0.02528206f, -0.14891274f, -0.25015956f, 0.44336510f, 0.61801875f, -0.04114619f,
    0.26854616f, 0.54113048f, -0.21547464f, 0.58072144f, 0.39167678f, -0.10007858f, -0.02896321f, -0.00653677f,
    -0.13640714f, -0.54437929f, 0.59250683f, -0.02824829f, -0.03985146f, -0.49496704f, 0.50605041f, -0.15105084f
};
float weights_out[] = {
    -0.18984948f, 0.78444332f, 0.07327490f, -0.03990981f, 0.32096305f, 0.24956469f, 0.23822695f, 0.54204220f,
    -0.26392993f, -0.09778112f, 0.44996050f, 0.90088242f, 0.53428918f, -0.21912983f, -0.12432422f, 0.44224468f,
    -0.02689643f, -0.26024485f, 0.36110887f, -0.19514494f, -0.02553238f, 1.00509262f, 0.77687097f, -0.23217228f,
    0.84889531f, 0.17805913f, -0.28240138f, 0.31521231f, 0.11622084f, 0.24925615f, -0.23105012f, 0.70973015f
};
float biases_out[] = {
    -0.41750270f
};
