#include "weights.h"

float weights1[] = {
    -0.32593650f, 0.20812261f, 0.43139678f, 0.15553892f, -0.40403211f, -0.32574761f, -0.24462545f, 0.09377187f, 
    0.49447811f, -0.31856054f, -0.25911188f, -0.24275970f, 0.48503721f, -0.26346481f, 0.35657930f, -0.49424076f, 
    0.49307227f, -0.39285666f, -0.37144810f, 0.18463463f, 0.46662241f, 0.25660032f, -0.08284795f, 0.26967412f, 
    0.03857738f, 0.42249227f, -0.23712933f, 0.29672587f, -0.32660830f, 0.11794621f, 0.49139142f, 0.29872340f
};
float biases1[] = {
    0.18279582f, 0.19336557f, 0.02952546f, 0.11535889f, -0.32285428f, -0.15790784f, 0.23093188f, 0.14523232f
};
float weights2[] = {
    0.25175682f, -0.33830163f, -0.25260004f, -0.20247287f, 0.34923628f, -0.17828037f, -0.05149746f, 0.04525488f, 
    0.00756549f, 0.08108826f, -0.16023114f, -0.08767156f, -0.30778182f, 0.20169003f, 0.11427245f, 0.25658980f, 
    -0.07228863f, 0.01730368f, -0.17365146f, 0.14329819f, 0.08869189f, 0.01963365f, 0.30069336f, -0.19690767f, 
    0.05863832f, -0.21648720f, 0.22288594f, 0.01163814f, 0.13122071f, -0.10314484f, -0.04738431f, 0.05777705f, 
    0.07783651f, 0.26143593f, 0.26950613f, -0.18021128f, -0.16391954f, -0.16797091f, 0.10408868f, -0.22589698f, 
    -0.02972512f, -0.18676187f, -0.00296676f, -0.29550058f, -0.15038224f, -0.26092443f, -0.09887992f, -0.17798218f, 
    0.13446586f, 0.15316860f, -0.13005438f, 0.05643071f, 0.33807254f, 0.11275019f, 0.07424184f, -0.10288606f, 
    0.34352931f, -0.02942078f, 0.29283810f, -0.30897006f, -0.03949025f, -0.03270250f, 0.10818666f, -0.00968998f
};
float biases2[] = {
    -0.00173721f, -0.26692253f, -0.31442362f, -0.03556309f, -0.14105470f, -0.12234973f, 0.02703075f, 0.34160769f
};
float weights3[] = {
    -0.18117054f, 0.00682105f, -0.33751836f, -0.09203860f, 0.04319289f, 0.31730196f, -0.13950910f, 0.06615277f, 
    0.23516192f, -0.09437387f, -0.20005144f, -0.25247139f, 0.04232896f, -0.17189795f, -0.27629417f, -0.18682075f, 
    -0.01474373f, 0.24130744f, -0.03923674f, 0.00494720f, 0.24745882f, -0.07352476f, 0.15978257f, -0.01701970f, 
    -0.01667190f, 0.00758711f, 0.34957188f, -0.29930153f, -0.25090179f, -0.19907936f, -0.13275807f, 0.03116152f
};
float biases3[] = {
    -0.31016076f, 0.08033965f, -0.11120147f, 0.17098163f
};
float weights_out[] = {
    -0.08917320f, 0.21283704f, 0.12917125f, 0.47186172f
};
float biases_out[] = {
    0.33641970f
};
